1118 300
0 0.0029213254 0.011462092 -0.028365236 -0.00089736324 -0.03387761 -0.0025044668 -0.119437724 0.007490935 -0.06950066 0.06608512 -0.06435886 0.028562749 -0.11302027 0.012798438 -0.13415147 0.03216717 -0.034175824 0.041110616 -0.039620493 0.021448094 -0.11527284 -0.029401097 -0.105729766 -0.05295841 0.006292552 -0.018655827 0.030380767 -0.049544916 0.026857074 -0.010261188 0.014281079 0.0036030838 -0.13186471 0.010243194 -0.00027421847 0.11095017 0.04945176 0.10000934 -0.03866408 0.048720248 0.0029766015 -0.055671312 -0.034226876 0.123149335 -0.08052587 0.13235198 0.053169847 0.14630947 0.033877492 -0.10942159 -0.0066463775 0.025979167 -0.04396993 0.04790329 -0.013393313 -0.09200596 0.11188345 -0.057560373 0.07319205 0.034094635 -0.06108654 0.10976393 0.016377281 0.013405007 -0.01401337 0.010708546 -0.01552677 0.029395467 0.05515331 -0.065607995 -0.030325614 0.0042516636 0.11484084 -0.0109576965 -0.07446113 -0.12954853 -0.034068774 0.07513327 0.09712543 -0.018442309 -0.061150823 0.04689656 -0.07447488 -0.0926241 -0.061928283 0.018462833 0.083390206 0.097783014 -0.00430288 -0.0023412898 -0.0879561 -0.021952298 0.045193247 0.026093295 -0.058491927 -0.02415089 0.059830513 0.038089756 0.09566896 -0.054848388 -0.0375073 0.025645705 0.015827449 -0.03124122 -0.057333887 0.0152800735 0.17254701 -0.017403506 -0.01849447 0.091057695 -0.023166254 0.025668545 0.023192963 0.004524188 0.016440868 0.023289084 0.026364513 0.03423462 -0.070562445 -0.068934605 -0.069214374 -0.026831148 0.1252304 0.06581464 -0.02920233 0.014818848 -0.06464283 0.016667312 -0.0048413416 -0.024805343 -0.017977212 -0.049419872 -0.071838915 0.011506885 0.042833142 0.07732471 0.0077082585 -0.07392587 -0.007501679 0.044169582 -0.025436271 -0.01923431 -0.09789764 -0.044839628 0.019281074 0.03485594 -0.032604005 0.023325548 -0.025145447 0.014781341 0.01488466 0.010908117 0.08061006 -0.017218268 -0.009735528 0.011487503 0.010642868 -0.05750674 -0.065823 0.015493789 0.107915744 -0.06773279 0.021706944 -0.08395999 0.025264887 -0.054099444 0.055742484 -0.04352077 -0.0833299 0.028086435 0.015101461 -0.009466265 -0.02078026 0.008404872 -0.019574085 -0.01265755 -0.02821743 0.023342153 0.07696111 -0.04697739 -0.012044437 -0.012196052 0.1280754 -0.0012918419 -0.048253573 -0.00088398496 -0.030210964 0.098242596 -0.030966926 0.052426107 -0.008491107 0.07002956 0.072408274 0.018872274 0.02814701 -0.042010862 -0.03927177 -0.011100005 0.045790702 -0.036593236 -0.049252555 0.1013478 0.048805665 -0.03987693 -0.09185869 -0.015172793 -0.20812249 -0.017972281 0.09791006 0.06506463 -0.07834742 0.0697232 -0.07382662 -0.024015428 0.033707276 0.011733272 -0.0583134 -0.02974975 0.058336027 0.022174753 -0.06253433 0.051666316 -0.06784123 0.11536367 -0.0076838364 -0.02546034 0.021250874 0.03474662 0.0433294 -0.005076845 -0.021281583 -0.0020255123 -0.03528609 0.076734774 -0.1251656 0.022903543 0.062491953 0.056942828 0.06390642 0.0052682543 0.034557637 -0.04018298 -0.07243746 0.066825084 0.025762076 -0.029419474 -0.009171905 -0.061380286 -0.06703925 0.009993041 0.07907307 -0.09608627 0.0769275 -0.02540934 -0.08169823 0.03833015 0.011442686 0.02626814 0.108901225 -0.011435784 0.06535024 0.02170657 0.06174995 -0.08006649 -0.027050776 -0.08451263 0.003908572 -0.046618387 0.01398057 -0.054139726 0.050437164 -0.066665344 -0.0060393303 0.015585941 0.012669702 -0.065207385 0.09991378 0.088320926 0.0804691 0.026543338 -0.061003774 0.026826115 0.03462374 0.03231201 -0.016890889 -0.01784554 0.036135845 -0.05631739 0.05625243 -0.01440791 -0.01739089 0.030789146 -0.026196405 0.052166115 -0.02688627 -0.009892036 -0.10641798 0.022937091 -0.019177975 0.016607264
819 0.0061597014 0.01600706 -0.018283455 -0.015576385 -0.027294356 -0.01868357 -0.10735099 0.007323118 -0.06088687 0.041826487 -0.05988389 0.028802732 -0.093154535 0.03522566 -0.12395106 0.03829727 -0.025084084 0.034562346 -0.041971743 0.03807142 -0.1197964 -0.0348516 -0.11769717 -0.061072856 0.00960518 -0.02871444 0.019765018 -0.058806393 0.011745047 -0.009085083 0.04436735 0.0024408577 -0.12645231 0.028247105 0.010798681 0.11637004 0.052023 0.091526926 -0.023516117 0.04142441 -0.005234425 -0.045073237 -0.025200954 0.10860014 -0.0808504 0.12146245 0.05923493 0.13631319 0.039630983 -0.11093388 0.007071916 0.020057285 -0.043008287 0.030091414 -0.044689246 -0.08283587 0.12006966 -0.05556464 0.053564176 0.025151005 -0.06572612 0.15966631 0.015400483 0.05508676 -0.0117032705 -0.018610954 -0.030147275 0.039938375 0.026753774 -0.050613903 -0.0015618354 -0.032584604 0.1287759 -0.022341773 -0.100106396 -0.10839341 -0.03742179 0.0872323 0.10941581 0.010397319 -0.027501239 0.050815683 -0.08547246 -0.09051205 -0.05208466 0.047341593 0.083944924 0.101616345 -0.030298015 0.0104658725 -0.089486934 -0.022007614 0.016331805 0.035255466 -0.0681197 -0.02352253 0.045315545 0.03112563 0.069824405 -0.041903492 -0.024648033 0.016442163 0.016333329 -0.0445619 -0.055822406 0.012713867 0.19104671 -0.035032954 -0.0043752543 0.09148435 -0.035686985 0.00076061627 0.018267956 -0.030474417 -0.0019487113 0.017099658 0.0289023 0.02513652 -0.064013205 -0.07964734 -0.08587064 -0.0066769468 0.10771881 0.07600598 -0.02520786 0.015432427 -0.05329021 0.013756092 -0.011715493 -0.009483146 0.0008160652 -0.045756046 -0.07273351 -0.009801079 0.011254115 0.053129118 0.007233575 -0.07517959 -0.026249414 0.051227123 -0.018746756 -0.021522285 -0.09965398 -0.037283592 0.0061319955 0.040368468 -0.03953316 0.025262631 -0.039591618 0.045207385 0.007858975 0.0061467835 0.07093089 -0.014332487 -0.029720312 0.010293675 0.0063912263 -0.06090774 -0.041298244 0.029250393 0.11292291 -0.077665605 0.018498216 -0.059833832 -0.025689354 -0.049483623 0.048466597 -0.025702942 -0.07018123 0.026547305 0.034729596 -0.0019540272 -0.026336674 0.006425123 -0.0063298945 0.0053640846 -0.0019422396 0.02937558 0.057802584 -0.06933928 -0.020053579 -0.010202239 0.120300494 0.029695392 -0.07436796 0.017526865 0.0068650814 0.08894163 -0.01199922 0.076502636 -0.015757317 0.038105194 0.08848068 0.012146237 0.030152509 -0.052860793 -0.013310406 0.010123054 0.028795147 -0.04777872 -0.06561218 0.07937307 0.062257808 0.00084112486 -0.09721878 -0.015324106 -0.19591749 -0.045373313 0.10526152 0.07337223 -0.06083034 0.085849345 -0.07366877 -0.029244639 0.047731772 -0.018467458 -0.074621186 -0.049995746 0.072516985 0.024953512 -0.057338137 0.038201246 -0.079571426 0.112737305 0.011423553 -0.01073741 0.039016094 0.06761896 0.025216537 -0.027549243 0.0051652165 0.007015581 -0.047044087 0.08714803 -0.1141773 0.0017397192 0.036451325 0.05290967 0.03633228 -0.009798094 0.05493916 -0.039366577 -0.078045346 0.07083626 0.04105299 -0.037428852 -0.0058599426 -0.07294077 -0.06909112 0.014160753 0.07711866 -0.06842388 0.07562599 -0.032204498 -0.10393101 0.026125247 -0.0055608894 0.008646189 0.099581465 -0.015224083 0.061520875 0.05733102 0.053331614 -0.062437493 0.007245666 -0.09177806 0.008991094 -0.04794525 -0.019173322 -0.04009693 0.020262295 -0.05912791 -0.019716531 0.025980681 0.017885111 -0.037466347 0.10142014 0.084319904 0.094576865 0.011697225 -0.037331812 0.023504205 0.036257084 0.027975284 -0.022796335 -0.009592987 0.020607106 -0.08150671 0.061765287 -0.007545139 -0.014786391 0.07063253 -0.018823067 0.07119136 -0.03538682 -0.0074524824 -0.10446076 0.032839946 -0.012633996 0.013305949
1 0.06915777 0.07609828 0.016707737 -0.05411394 -0.014196745 -0.047609083 0.0073196823 0.02888775 0.039817806 -0.031111829 -0.016589126 0.053800218 -0.0050395033 -0.07995266 -0.07381383 0.033400655 0.015879981 0.0148948915 0.016364671 0.11114367 -0.1127163 -0.030861724 -0.09488022 -0.11547843 -0.0020635389 0.0050881244 -0.06627432 -0.007473661 -0.044573 0.029170364 0.06800826 0.0025948589 -0.07967541 -0.005696402 -0.00415019 0.07094974 0.015372564 0.10562604 0.03808039 0.1345782 -0.13881896 0.06521567 -0.041779794 -0.068535 -0.09578575 0.07308143 -0.08615982 0.017909672 -0.031389948 -0.13570254 -0.018581113 0.06841761 -0.01829526 0.036745813 -0.16109055 -0.07206773 0.08658845 -0.058239285 0.0146932425 0.023884865 0.057389952 0.09009656 0.03854504 -0.0051259086 0.015166846 0.039026987 -0.12081829 -0.013557874 0.07307262 -0.036242507 0.04418206 -0.025268422 0.03368259 0.008534715 -0.100443475 -0.092505045 -0.03679715 0.03751099 -0.0005157906 0.027384104 0.065559946 0.004826798 -0.06261125 0.05707259 -0.00215851 0.09009095 0.012735145 -0.05836922 -0.07252794 0.10925784 -0.12060062 0.018886354 -0.090374015 -0.18857868 -0.062475592 -0.04634776 -0.049664035 0.062250394 0.04977056 -0.0115827825 -0.033894338 -0.04140967 -0.033863768 0.09903131 -0.029467277 0.02497853 0.14467612 0.030938942 0.06816944 -0.008694125 0.0015367904 0.01959247 0.007974096 0.08847012 0.00062312343 0.025951644 -0.00043110276 -0.039815392 -0.009786526 0.07180312 -0.030246517 0.020962946 0.083856456 0.10028366 0.06013502 0.021761457 -0.07047977 0.037219156 -0.009862278 0.06667298 -0.02168096 0.07109721 -0.016632391 -0.046343695 -0.049191277 0.011986139 -0.0041179406 -0.060153734 -0.03402358 0.03623958 0.10480654 -0.09664627 -0.01278452 0.07516185 -0.0161948 0.051244862 -0.053357683 -0.014082787 -0.074425995 0.0069296886 -0.028405827 0.051564857 -0.027677955 0.007886025 -0.06867482 0.022436861 0.0070359916 0.0028044083 0.04575535 0.06559592 0.042229526 0.014090752 -0.005961172 -0.047110993 -0.0366499 0.046554714 0.023713026 -0.05152066 -0.023818728 -0.02896918 0.028538045 0.0064543406 0.046478357 0.018860202 -0.006130708 0.04022608 0.057101 0.11608459 -0.0118795205 -0.0659529 -0.009327552 -0.016988957 -0.031748045 -0.003484144 -0.029726505 -0.0680179 -0.029427245 0.016201084 -0.010061896 -0.030236 0.0422642 -0.031004073 0.0044659167 0.005103732 -0.14349031 0.056736864 0.11845956 -0.029921314 -0.029426664 0.012901023 0.011380458 0.06485963 -0.009486135 0.05895313 -0.03187984 -0.106578894 -0.16802327 0.06671962 -0.0027535018 0.043585323 -0.06017937 0.121452555 0.034213573 -0.038387503 -0.00360317 -0.024921654 0.010443806 -0.05770441 0.057677574 0.0472297 0.010029057 -0.094400644 -0.06719486 0.039669048 0.10568727 0.022696575 0.054063376 0.08185616 0.08786335 0.0036936356 -0.005967811 0.0405981 0.051214542 0.016199544 -0.04324275 -0.089738436 0.056905344 0.018024765 -0.080114946 -0.00146452 0.06636696 -0.05701071 0.025273267 0.038900375 -0.0035079217 -0.008498426 -0.042088028 -0.052107558 -0.0513975 -0.017468013 -0.018615015 -0.005592205 0.056921463 -0.052979853 -0.07118828 0.032830697 -0.12623297 -0.053804286 0.00809261 -0.07147461 0.0592229 0.118463196 -0.01839598 0.097330175 0.053698935 -0.085450254 0.007161539 0.034778945 0.0061274287 0.11340572 -0.009499917 -0.039085817 0.031974602 -0.053121574 0.018767906 0.024790958 0.013498797 -0.0067653703 0.10166957 -0.0020911233 -0.018187756 0.03707078 0.029914008 0.0031614297 -0.090171814 -0.01891916 0.012752257 -0.06887338 0.03849718 0.017595163 -0.043383293 0.061361548 -0.029395351 0.05496794 0.0007135699 -0.017913464 -0.0010928058 -0.07530247 -0.035922356 -0.02302898
268 0.073403105 0.09169867 0.024030782 -0.043253656 0.00058152736 -0.04447469 0.0141507 0.04300707 0.02905532 -0.004789429 -0.025196983 0.0867301 -0.013301653 -0.04110133 -0.060116444 0.043463048 0.008113247 0.010308173 0.0077302363 0.08868035 -0.11651132 -0.044117887 -0.11358846 -0.09446232 -0.01066092 -0.038910124 -0.06629013 -0.020814376 -0.061498683 0.015303224 0.09683622 -0.0036062114 -0.10765336 0.011620556 0.0013735817 0.07516964 0.03303318 0.104308136 0.021518681 0.10825624 -0.11866625 0.07157117 -0.04009738 -0.06462429 -0.09803151 0.070355736 -0.099293604 0.031024223 -0.048161622 -0.14294775 -0.018432202 0.057970867 -0.01061866 0.02675942 -0.12816322 -0.097571395 0.07950948 -0.040239852 0.029326748 -0.0057752845 0.06401938 0.090484776 0.057103842 -0.03843258 0.03408219 0.015851215 -0.10593819 -0.011078581 0.06615727 -0.025717681 0.04871592 -0.02282685 0.043252144 -0.010831408 -0.07133281 -0.09104283 -0.05369077 0.020405846 0.032176323 0.005024112 0.04714187 -0.005504697 -0.06474053 0.058560148 -0.043270122 0.08486291 0.00931594 -0.07241762 -0.08371638 0.091600716 -0.11222207 -0.008388955 -0.07181244 -0.18084738 -0.062219035 -0.02973768 -0.050317954 0.06794146 0.041034527 -0.016446369 -0.04142232 -0.0042696283 -0.03197165 0.07852595 -0.03368076 0.037594397 0.14987867 0.03236756 0.067684054 -0.004257643 -0.007002498 0.066759184 0.04544252 0.08547844 -0.0021555803 0.031256933 -0.0025775176 -0.0207516 -0.0073016738 0.08248965 -0.03611387 -0.01783531 0.094082974 0.112025745 0.057737865 0.040860083 -0.09383892 0.041500777 -0.0042827246 0.03998789 -0.034921702 0.08771369 -0.07069456 -0.044095293 -0.04082178 0.026563164 -0.023948839 -0.07769581 -0.025855228 0.041448575 0.096799076 -0.08521898 -0.001948551 0.0727029 -0.011927065 0.08337957 -0.029236257 -0.013923984 -0.08908177 -0.011888623 -0.06670198 0.06304719 -0.01439777 -0.013290109 -0.047053963 0.043330375 0.014108624 0.01395979 0.039014142 0.06539187 0.042246666 0.04245882 -0.005354081 -0.036723368 -0.06385028 0.033705592 -0.016653307 -0.067175426 -0.018875588 -0.015789514 0.017226856 0.014218429 0.059288092 0.010498718 -0.0057122028 0.050186023 0.058018833 0.098164685 -0.014925457 -0.07188908 -0.03419849 -0.036928676 -0.031236006 -0.030744987 -0.028788721 -0.08016824 -0.07612572 0.009877248 -0.0069611305 -0.03398723 0.044786062 -0.022136128 0.009380214 0.03388649 -0.12174669 0.088157065 0.10494055 -0.036995422 -0.017433498 0.009728198 -0.0049403072 0.07145585 0.008518166 0.08199031 -0.031389896 -0.10839572 -0.1662846 0.08184743 -0.015205719 0.026413739 -0.05011557 0.12039982 0.02468086 -0.045886822 -0.013356216 -0.01047269 0.02495513 -0.056978963 0.032809064 0.041724037 0.012340943 -0.1078003 -0.06900088 0.025891397 0.096231475 0.021731852 0.036972933 0.08654607 0.085254334 -0.006686926 -0.023843745 0.022262113 0.027117494 0.004257337 -0.018374022 -0.10513541 0.041616634 0.008151536 -0.07400532 0.011279171 0.05263492 -0.06903011 0.03187101 0.020792566 -0.008109278 0.005833627 -0.05319459 -0.028662274 -0.086738646 -0.022921659 0.011620444 0.0013872744 0.07101259 -0.05886118 -0.04420239 0.042306304 -0.106066585 -0.05034458 0.021962497 -0.07188707 0.055964656 0.11487226 -0.01725529 0.08509428 0.033350762 -0.072503924 0.007246449 0.018475732 0.013767206 0.05408507 0.0023234067 -0.06284326 0.022100348 -0.06539255 0.013845178 0.03646435 0.017834255 -0.040762693 0.08950173 0.014770542 -0.032211438 0.06839802 0.034662783 0.006482459 -0.062223427 -0.013986425 -0.0012061906 -0.08749408 0.044267688 0.02083974 -0.03449851 0.05915407 -0.016944679 0.07012315 0.012228844 -0.03214777 -0.0030438362 -0.0864812 -0.028219324 -0.0071578086
592 0.014051311 0.05144233 -0.013008636 0.036698148 0.015863309 0.007833704 0.029288856 -0.033997215 0.07544547 -0.14596298 0.010560628 0.03413958 -0.02000207 -0.07604839 -0.08632648 0.016330704 0.036716618 -0.03591411 -0.053564053 0.096314386 -0.08041485 0.020567378 -0.035113595 -0.065899685 0.07597076 0.14727981 -0.05811356 -0.04478726 0.0023294082 0.03299164 0.033184003 -0.0065918243 0.010045504 0.067769065 -0.040233314 0.06476391 0.03900954 0.07983431 0.11956656 0.12529498 -0.04031567 -0.002943296 -0.054794047 -0.071239255 -0.055130754 0.07953668 -0.042549063 -0.031840563 -0.026932435 -0.14189717 -0.0004529533 0.0526106 -0.0726283 0.055491645 -0.034560177 -0.03446177 0.08660218 -0.027551837 -0.10024099 0.10366717 -0.038794223 0.019129213 0.021359362 0.031315275 0.026070995 0.07801826 -0.028341608 -0.019463887 0.08714629 -0.025662208 0.06515704 -0.021721067 0.017521916 0.027568819 -0.14121586 -0.019421889 -0.04669448 -0.0042320653 -0.037221506 -0.061040524 0.06869721 0.03869 -0.08868243 0.020846257 0.11283963 0.024903547 0.0017377277 0.004379979 0.029842416 0.08396854 -0.13109651 0.12226401 -0.09672528 -0.19488032 -0.039072294 -0.015133765 -0.08105889 0.0596593 0.03841897 -0.028266069 -0.020664232 -0.06416446 -0.0647223 0.021092761 -0.04998802 0.017772166 0.018821403 -0.010426361 0.054024555 -0.005233899 0.020911828 0.03590905 -0.036798786 0.023067405 -0.0019658895 0.06840266 0.04292134 -0.0075782905 0.0071633365 0.053027045 -0.032341167 0.043598164 0.04588132 0.06992977 0.031835563 0.0065141064 -0.08005473 0.016459478 0.03227933 0.036574565 -0.035023417 0.009848876 0.05708694 0.006702262 -0.05515213 -0.017554652 0.046373338 0.08300952 -0.0389306 -0.003018296 0.06036456 0.04389418 0.03247129 0.10333917 -0.03149572 -0.06772702 -0.041847836 -0.031351075 0.0038288333 -0.018477518 -0.04703362 0.03203083 0.017150912 -0.012097916 -0.07290289 0.019522745 -0.030582625 -0.08245859 0.007103957 0.052027922 0.01600461 -0.014174756 -0.085040174 -0.057551816 -0.03580405 0.112194635 0.089450695 -0.06795196 -0.017768981 -0.05404023 0.03620605 0.07662598 0.014341304 0.029801855 -0.022819536 0.020882985 0.10936605 0.05036127 -0.04211303 -0.0020506661 0.014195518 0.01824672 -0.02587425 0.01067718 0.055974826 -0.011963418 -0.021918943 -5.7997204e-07 0.015064722 -0.026456464 0.11578512 0.012310231 -0.0037969844 -0.016838992 -0.21871094 -0.0777105 0.14834589 0.03617056 -0.031827085 -0.0046928013 -0.010289393 0.043336455 -0.04063108 0.0003267568 -0.02190113 0.01572812 -0.12436544 0.059134915 0.007730242 0.08782373 -0.037268694 0.07693062 0.06927769 -0.021930777 -0.10545026 0.0051419237 -0.032173593 -0.06911287 0.09038249 0.0025179205 -0.08025905 0.024702433 0.012125225 0.005006047 0.085266374 -0.046836555 -0.0061526997 0.042924285 -0.003961316 0.06551034 -0.046866376 0.043403536 0.025334757 -0.022318088 -0.06683368 0.0022147682 -0.034054194 -0.0014305011 -0.003106777 0.007912502 0.048249975 -0.121186264 -0.004167943 -0.027664391 -0.04776881 -0.0026434166 -0.030531872 -0.028800266 0.025343962 0.017534416 -0.030346796 -0.000257097 0.016044807 -0.05169378 -0.0392961 0.069863625 -0.12985137 0.056151643 -0.007539966 -0.087329835 0.11676535 0.037729863 0.04430425 -0.0067784823 0.06294694 -0.0813272 0.069386445 0.098032795 -0.019048013 0.09485888 -0.07329043 0.09810341 -0.048969265 -0.06515889 0.0715703 0.021311926 -0.06737491 0.053291343 0.05376599 -0.06497221 -0.022596296 0.03934206 0.08037798 -0.0067760483 -0.08384199 -0.06702306 -0.011521804 -0.023420107 0.05093721 -0.023895048 0.044807397 0.06312443 0.027613182 0.012689432 -0.04732385 0.00052851456 0.014146024 0.022470841 -0.050478984 0.05116879
2 0.013873492 0.05423646 0.022016006 -0.00116038 -0.03595689 0.027752018 0.037423152 -0.06272796 -0.055091333 0.044331778 0.057484467 -0.056135047 0.0067902124 0.061512917 -0.032368846 -0.0551424 -0.095139205 0.012082498 -0.06677134 -0.024947107 -0.023818862 -0.041989006 0.023718417 -0.097941004 -0.083807826 -0.055175442 0.07966283 0.018990563 -0.0040009944 -0.024268636 -0.015975414 0.036528777 -0.06817854 -0.013254093 -0.16517292 0.0499955 0.041044857 -0.027583959 0.035017636 -0.05718782 -0.03887367 0.008563979 0.057537604 -0.05283671 -0.011417914 0.026452322 0.018285764 0.06498205 0.07743543 0.005670515 0.08597103 0.031043388 -0.021731086 0.056078672 0.1024983 -0.013638493 0.016665377 0.0095509235 -0.19324873 0.073742405 -0.014079772 -0.012074515 -0.036923576 -0.0023779385 -0.010984016 0.037140645 0.10930631 -0.0025275613 0.012041114 -0.03749729 -0.032858368 0.11555419 -0.0016596587 0.013604412 -0.059734486 0.03294651 -0.100284174 0.07906193 -0.040227227 0.032906506 -0.10436706 -0.0976171 0.13673344 -0.032140013 0.004883411 0.022296393 -0.07078475 -0.04686344 0.000786933 -0.0024178352 0.078462675 -0.039591838 0.0066871783 0.0007205871 0.078338064 0.01794733 -0.088432364 0.046711646 -0.06376197 -0.07584083 0.033108663 -0.04371891 0.03499964 -0.023948546 0.016035121 0.05009628 0.0044256197 -0.06098539 -0.0433665 -0.09075148 0.018129589 -0.12649101 -0.014269826 0.024905689 -0.08914665 0.027349312 0.085261494 0.0031078076 -0.028330907 0.020328104 0.023550464 0.0021956451 0.06519056 -0.08731111 -0.093054794 0.028937282 0.09802925 0.08044954 0.07136111 -0.1344803 -0.038930986 0.0034036683 0.059542682 0.016534846 0.05847643 0.02377194 0.003441569 -0.08477177 -0.03271498 -0.111593135 -0.106201485 0.022504097 0.013433545 -0.018318506 -0.07034228 -0.035504937 0.07423261 -0.011991715 0.098442234 -0.07531537 -0.09101266 0.06220987 0.018936593 0.013220475 -0.075618446 0.011433441 -0.0035698204 0.016735742 0.094679944 0.025120404 0.029306142 0.071908705 0.09734045 0.1475537 0.0065354104 0.055250205 -0.004296779 -0.009787557 0.0089738555 0.045039043 0.08483635 0.022350864 -0.0090943435 -0.118790515 0.07151113 -0.1277546 0.0027631358 -0.011123009 0.026114384 -0.025587019 -0.019067608 -0.056632776 -0.09516019 0.011035826 0.056711644 0.08135878 0.0037805291 -0.008619083 -0.104141235 0.054708477 0.0019534044 -0.006309426 0.05794381 -0.026633168 0.05120198 0.010307338 0.06737255 -0.0029014072 0.047691416 -0.035086848 0.005279029 0.03009611 0.010524247 0.014250158 -0.005080701 0.05190356 0.0316668 -0.08759766 -0.06817049 0.039574537 -0.043005858 -0.030764634 0.017710848 0.056436475 0.005328183 -0.05763757 -0.0074013546 0.057242498 -0.052247595 0.05828301 0.05385451 0.07801216 0.09290755 -0.052144807 0.11645824 0.04015236 0.031572305 -0.02174798 0.01220926 -0.023142077 0.01020771 -0.10252947 0.1295001 0.07403822 -0.044423766 0.044034947 -0.11769336 0.009225715 -0.06942128 0.048797227 -0.04774115 0.030717555 -0.019324014 0.01782667 0.0013258026 0.014552409 0.0032001098 -0.045507237 0.013736868 0.09362688 -0.0006267443 0.07565752 0.011875713 0.04567179 -0.1903248 -0.083830714 0.019856589 0.03361982 0.023328675 0.0005780352 -0.03254395 -0.04719647 0.020780016 -0.06269505 0.00013230958 -0.04381764 0.019401813 0.01450093 -0.02359794 -0.04050378 0.12620284 -0.033120375 -0.008818798 -0.040418424 -0.0070496453 0.06771112 0.0668846 -0.0023063715 0.059239052 0.0019031158 -0.02131942 0.06364956 -0.019064099 -0.12258592 -0.024324844 0.0069782645 -0.03004775 0.08149548 -0.064985536 -0.047781434 -0.023995394 0.097977005 0.0649888 -0.056836363 -0.015847899 -0.043626364 -0.039741192 0.062440567 -0.024106415 -0.024417335
91 0.038437333 0.03844896 0.062248606 -0.005602176 0.0071676653 0.035263542 0.03383739 -0.032767825 -0.041369442 0.029415864 0.05082554 -0.07696599 -0.013049811 0.051746015 -0.028313726 -0.028363708 -0.09885365 -0.015126055 -0.06157824 -0.04438521 -0.058076315 -0.026350794 0.00813023 -0.092812 -0.068380274 -0.053668488 0.06755001 0.04011488 -0.016771886 -0.0313993 0.018735249 0.039720017 -0.04802938 -0.01695496 -0.16996093 0.02394881 0.045426987 -0.0044762874 0.04777496 -0.044563048 -0.019909522 0.010638019 0.021598417 -0.061814222 -0.02388476 0.019725954 0.036682878 0.027057774 0.08080214 0.025691696 0.10835796 0.034469042 -0.018585712 0.06799693 0.07587634 0.011508952 0.0044205547 0.019314954 -0.19474839 0.08461539 -0.03288426 -0.0039256876 -0.07033508 -0.0043205814 -0.004741867 0.034388356 0.105485745 0.0007105988 0.03167912 -0.016439285 -0.043251954 0.116341956 0.0003115875 0.037605785 -0.053983994 0.027385835 -0.10251569 0.077429906 -0.055256985 0.021121703 -0.105214186 -0.10292721 0.13575904 -0.017736757 -0.011991648 0.036430523 -0.06274994 -0.04980184 -0.032738447 0.02761515 0.062329326 -0.024089148 0.026911836 -0.024410354 0.07350345 -0.012884883 -0.08006104 0.032146662 -0.08339487 -0.08194231 0.03330098 -0.044500478 0.044166304 -0.019541897 0.03592231 0.027161788 0.025422823 -0.044234373 -0.028494826 -0.110791065 0.016054649 -0.14255469 -0.009195819 0.037608184 -0.07889221 0.022822643 0.08542174 -0.014356447 -0.0449075 -0.0049902597 0.0077549317 0.00211399 0.062896945 -0.08454104 -0.0957482 0.036148198 0.07074705 0.06426002 0.09766896 -0.13072371 -0.05670934 0.049604777 0.040093612 0.021039406 0.031033821 0.0011563135 0.0027576827 -0.10693829 -0.015139986 -0.09924309 -0.10310002 0.021542545 -0.016708642 -0.01269635 -0.07183966 -0.050729126 0.08277599 0.0037513361 0.11128656 -0.07704986 -0.06373236 0.07288499 -0.002109792 0.014632153 -0.06520082 0.038322516 -0.013412781 0.037400395 0.098090455 0.014827857 0.054669935 0.06771674 0.09400527 0.12721865 0.0038022567 0.054994054 -0.012380783 -0.011032414 0.012189002 0.04057426 0.06857575 0.034399416 -0.0071669826 -0.10187323 0.089232 -0.08572292 0.01252432 -0.00700675 0.038793404 0.0046231784 -0.03296186 -0.043570954 -0.12560648 0.011487293 0.08887119 0.08461794 0.011302788 -0.022340722 -0.09131249 0.04634789 0.00085871853 0.017333198 0.045343764 -0.02255725 0.0494736 0.0071531152 0.04992747 0.0069243456 0.018982565 -0.06934632 0.0026927171 0.03105922 -0.0046902318 0.014590286 0.0009950469 0.03599696 0.034403425 -0.0996727 -0.08858514 0.07093098 -0.04856796 0.0075982185 0.047911327 0.06906705 0.022068337 -0.03134351 0.016944956 0.05943794 -0.029306393 0.05527558 0.09824665 0.08446249 0.111678824 -0.023666982 0.11209453 0.017625554 0.022211922 -0.034801025 0.021999849 -0.015738469 -0.0072894758 -0.113020204 0.1416862 0.086112514 -0.0397988 0.02204686 -0.124306194 -0.011480003 -0.0664368 0.05576763 -0.039413124 0.042807348 0.01955528 0.045456365 0.002894411 0.03491284 -0.010726732 -0.04740609 0.02493088 0.121891625 -0.03026571 0.087386 0.03991044 0.026040839 -0.18569645 -0.050710768 -0.005883958 0.016211305 0.011441455 -0.002283119 -0.027506407 -0.048885595 0.034576185 -0.032237254 0.0051140375 -0.057915244 0.033725463 0.01031167 0.002301003 -0.022852266 0.08407422 -0.026277395 -0.013513638 -0.03889879 -0.010453084 0.037204772 0.04923099 -0.009672176 0.04424271 0.01527318 -0.03150672 0.055457007 -0.020046482 -0.12940946 -0.03616355 0.024902575 -0.038782597 0.049540356 -0.052578032 -0.055741288 -0.060100533 0.11199459 0.070603915 -0.053834364 0.0028436147 0.005580732 -0.027458316 0.018206982 -0.009380883 -0.015515548
692 -0.02429871 0.13915603 -0.01225316 0.01803842 -0.009575634 -0.025037985 0.07446586 -0.017268283 -0.12623207 0.078292124 0.12961935 0.017166432 0.03300552 0.073599495 -0.0489381 -0.08798668 -0.0791457 -0.0042531514 -0.06013882 0.011124268 0.03882374 -0.06509617 0.0982502 -0.06069419 -0.040704515 -0.014493564 0.074825674 -0.015903978 0.017372092 -0.009599776 -0.019116381 0.032722794 -0.016618954 0.0044555673 -0.11953645 0.034066416 0.006481915 -0.06417002 -0.055011246 -0.013112682 -0.07519801 0.054032207 0.05262736 -0.05592822 -0.060905825 0.03281256 0.017471483 0.06451148 0.0021492357 0.089154445 0.094549775 0.04845733 0.046757706 0.007925049 0.097090125 -0.11023831 -0.0011975036 0.018119643 -0.124529794 -0.009552694 0.029268289 0.029301047 -0.017725207 -0.034301497 -0.026116597 0.05664763 0.087167405 0.006751653 -0.00414396 -0.01154006 -0.06330703 0.08576733 -0.018001912 -0.051063407 -0.04474896 0.073079295 -0.08491164 0.02698028 0.005449995 0.06350354 -0.031484388 -0.061403096 0.07548103 0.086310744 0.00031335122 -0.040089697 -0.12747434 -0.0728381 -0.0104323495 0.042385917 0.0963525 -0.037129786 0.049082674 0.019657161 0.1056785 0.09242994 -0.089540124 0.059032492 -0.074920274 -0.06304562 0.033351086 -0.0301757 0.034417164 -0.03310008 0.085795246 0.10548429 -0.053938225 -0.015439673 -0.06265129 -0.040321104 0.002872902 -0.15225093 0.01696468 -0.047582 -0.091504626 0.013841838 0.042479694 0.04009248 0.030841365 0.06672727 0.11270926 -0.0049166046 0.08379292 -0.09322497 -0.075274 0.053356607 0.027639955 -0.00039364246 0.029121974 -0.09995461 -0.015912052 0.0494807 0.056933127 0.09560337 0.03688817 0.08227406 0.046248917 -0.04740031 0.017117223 -0.07568783 -0.0642072 0.06092692 0.006181792 0.04316779 -0.09583245 -0.00342392 0.05106089 0.037461784 0.032539457 -0.056635395 -0.059174374 0.03187603 -0.009210989 0.0032834783 -0.04201115 -0.015278402 -0.016486762 0.04099766 0.10571427 0.035871472 -0.03377587 0.082742 0.021016192 0.06908624 0.0104180565 0.09093875 0.015192732 0.01741083 -0.0070150434 0.07535006 0.07108357 0.0037973032 0.01757089 -0.10847995 0.043581292 -0.13477524 0.014130861 -0.09125149 -0.0094820475 -0.023108603 -0.0061000357 -0.029143061 -0.069606975 0.017348344 0.06829024 0.11645768 -0.060223393 -0.024211321 -0.04969432 0.017363423 0.030581884 -0.04485945 0.05607685 -0.002819999 0.038936004 -0.019313134 0.056990206 -0.026183918 0.040182266 -0.014026471 0.026242387 0.010468994 -0.011530616 -0.006919739 0.019004725 0.054778416 0.05511867 -0.02478803 -0.06274492 0.011582151 0.019773396 -0.103047945 0.022496846 -0.0058773276 -0.019983891 -0.08667531 0.0020682393 0.012344738 -0.045053244 0.021562614 -0.041197944 0.06671085 0.035806317 -0.036979966 0.13833182 0.051682066 0.0016740329 0.0035970118 -0.046438716 -0.08443043 -0.044169173 -0.10335353 0.17020601 0.027721213 -0.040607788 0.039141152 -0.05431379 0.025828749 -0.0469485 -0.0326483 -0.03276513 0.064755686 -0.05662026 0.028574247 0.065058954 -0.02232088 -0.01551647 -0.019326162 -0.04623227 0.050878193 0.01623574 0.081651405 -0.010907786 0.03611165 -0.13814555 -0.043941412 0.0479286 0.12261318 -0.041049335 -0.031020625 -0.033309713 -0.02003019 -0.0005687701 -0.09446432 -0.06931691 -0.015196304 0.006044783 -0.05259429 -0.044046827 2.3167897e-05 0.0945599 -0.0032490776 0.008964658 -0.08079964 -0.012220501 0.053330585 0.054051097 -0.009118334 0.02558619 0.06207033 -0.053711783 0.06792126 -0.0654932 -0.032354984 -0.023223152 -0.016416421 -0.020726008 0.05488887 -0.08248715 -0.082316525 0.02613558 0.09010118 0.06449672 -0.06525433 0.051555373 -0.068839 -0.07264336 0.007053185 -0.021333521 -0.013772926
3 -0.05288592 0.025984466 0.0010469707 0.018337464 -0.023421893 0.008898161 -0.018846236 -0.041757796 -0.0046185716 0.004577831 0.12014466 -0.108521245 -0.045342118 0.12892821 -0.034752656 -0.07633529 -0.11161817 -0.04666067 -0.0026375346 0.0090231905 0.05257844 -0.0034209022 -0.08850562 0.016531587 -0.012922502 -0.0007739175 -0.08517681 0.01819257 -0.037085544 0.025785351 -0.0076582027 -0.09158036 0.064598225 0.028295863 -0.097821325 0.08315519 0.023640323 0.070204526 -0.008251967 0.016678948 0.0076646605 -0.07718789 0.036605474 -0.012709385 0.052197754 0.0035016858 -0.021161968 -0.015329738 -0.09032495 -0.06693191 -0.12138272 0.030359035 -0.05148959 -0.06344909 -0.061101336 0.06330822 -0.053758334 0.0004640552 0.0079811 -0.008663072 0.09889873 -0.14362602 -0.062203944 -0.0074177305 -0.0026411964 -0.109076 0.08430205 -0.059898417 0.09417272 0.08638074 0.031400446 -0.1006078 0.04225162 -0.065813884 0.0029090405 0.07464954 -0.0075944345 0.017864585 -0.020956576 -0.064043455 -0.0491956 0.112388045 0.017969131 0.050367437 -0.027296895 0.10066436 -0.049768668 0.032944888 0.079580404 0.052630864 0.04861626 -0.049795758 -0.02333884 -0.0034688294 0.014354266 0.10089948 0.06637056 -0.08880896 -0.022058776 0.019975543 0.051535804 -0.041084055 0.016276043 0.06631313 0.031138929 0.07030892 0.043614928 -0.0155678345 0.0062202415 -0.06514097 0.038771108 0.030546037 -0.10592857 -0.062343348 0.0069283354 -0.05146808 0.03135296 0.021267315 -0.0050906017 -0.102117345 0.060632955 -0.0054438342 -0.11022338 0.07901738 -0.068475634 -0.06554809 0.085599944 -0.0018984694 -0.03152137 -0.006951143 0.04237528 -0.08483521 -0.041259147 0.030287636 -0.022686223 -0.0323067 0.016636454 0.061376918 -0.03180401 -0.01744355 0.01983412 -0.059497017 -0.010750093 0.028404972 0.0025035122 0.03598494 0.032326207 -0.018262371 0.10140227 -0.034204584 -0.023181213 0.13950092 0.13163063 -0.0038221425 -0.07244994 -0.028049376 0.05223463 0.055792972 -0.0023450814 0.029881988 -0.09997415 -0.012316519 0.07454373 0.03594828 -0.04381966 0.047058158 -0.025668068 0.10062016 0.023648538 -0.009771582 0.006211546 0.064591415 0.003295044 0.070687205 -0.007545293 -0.09048394 -0.100343995 -0.018213501 0.018515887 0.040158883 0.087325215 0.04660585 -0.0030705319 0.034116928 0.08472603 -0.105149165 0.001497781 -0.01273526 0.045836292 0.0011843247 -0.00978092 0.029924968 -0.06886395 -0.017827319 0.06809573 -0.011891399 -0.0034306396 -0.0011544946 0.015150787 -0.012105233 -0.05537667 0.06934802 0.11458676 -0.0024986924 0.00065463845 -0.039752048 0.021490317 -0.05985319 0.10658957 0.07649246 -0.061499547 0.032194614 -0.014512486 0.005526834 0.016896868 0.14360674 -0.034327406 -0.006708853 0.06290218 -0.09137494 -0.0084396545 0.027310781 0.024057655 -0.13234471 -0.061853126 0.018673092 0.047298405 0.02021528 0.037773367 -0.090583585 0.009838286 0.10290052 -0.098828465 -0.029341407 -0.028664615 0.01198844 0.08565447 -0.07138352 -0.03386807 0.02955631 -0.06456401 -0.09783846 -0.020462885 -0.041090455 0.016000353 -0.024198866 0.029589156 -0.010571867 -0.08974553 -0.01239886 0.13375853 0.047882974 0.052914448 -0.055153362 0.03787697 0.093859926 -0.027520712 0.07650941 -0.10533766 0.01731698 0.043102037 -0.015872998 -0.02678942 0.021763364 -0.029613417 0.07218187 0.027977707 0.031838425 -0.09312126 5.6487494e-05 -0.01959246 -0.033007577 -0.02120085 -0.07352247 0.0729444 0.021719813 -0.08210637 -0.0694215 -0.041009758 -0.011510367 -0.059601866 -0.09986405 -0.06602345 -0.07355136 0.021645846 0.04285234 -0.050509285 0.026489493 0.04903316 0.060875293 -0.06463522 0.017625464 -0.06473779 0.04389523 -0.068164356 -0.04640536 -0.09209221 0.025305724 0.07953865 -0.08281387
1049 -0.050322972 -0.0250263 -0.018496538 0.014337574 -0.043170236 0.02276467 -0.0018608095 -0.05909625 0.0024918295 -0.016597955 0.0912518 -0.083982036 -0.029409284 0.11993019 -0.042437155 -0.04792163 -0.101531595 -0.03810781 0.00032393323 0.0067711654 0.053149004 0.021568306 -0.07772631 0.015072433 -0.003740342 0.0077911112 -0.082517385 0.004531676 -0.03627219 0.009337248 -0.03707123 -0.09411246 0.07439788 -0.0035350358 -0.115842886 0.096387066 0.06134608 0.06829853 0.0045263413 0.041696377 0.0071491483 -0.07529349 0.03938936 -0.035576038 0.03428153 0.049726058 0.0036074482 -0.013987852 -0.06862057 -0.067049116 -0.0978103 0.017298406 -0.023405954 -0.050594274 -0.05992166 0.05023755 -0.006170786 -0.028673373 0.004482215 0.009175546 0.09865014 -0.12919617 -0.03839456 0.00532085 -0.010090471 -0.091515444 0.059257347 -0.0791054 0.07684279 0.09014228 0.04241357 -0.100736156 0.027194671 -0.054718662 -0.023470113 0.06398712 -0.019497538 -0.0046257013 -0.016301403 -0.06378434 -0.026622964 0.09652107 0.014190319 0.05723237 -0.05462029 0.08565893 -0.08837645 0.040848207 0.094244264 0.07993547 0.021231107 -0.03563948 -0.034386076 0.008470632 0.026545515 0.10447859 0.08753315 -0.08193101 -0.012306801 -0.013394627 0.058879472 -0.050920233 -0.00934739 0.06549329 -0.013046977 0.054557286 0.042751525 0.036816604 0.026488872 -0.06653541 0.077443786 0.057223264 -0.10159584 -0.016528461 0.025356585 -0.055773295 0.046696126 0.0067494917 -0.0025716014 -0.11203944 0.049246274 0.008547565 -0.0684009 0.09684088 -0.06915028 -0.074673064 0.08072655 -0.0018098269 -0.048734963 0.0109283915 0.04445476 -0.09844443 -0.022934813 0.017305603 -0.014013339 -0.056909107 0.003067754 0.020776112 0.00023634141 -0.019891134 0.0072678425 -0.03273472 0.006014644 0.01541572 -0.014571804 0.039863177 0.047395013 -0.019354321 0.09647281 -0.028555509 -0.045161605 0.15140377 0.17430192 -0.016988352 -0.061218034 -0.032269545 0.062332954 0.04541468 -0.034360144 -0.0036339099 -0.101467475 -0.031853177 0.05152439 0.029395763 -0.048328668 0.033269323 -0.0447395 0.0985671 0.043765612 -0.018179048 0.035617586 0.05335372 -0.003908748 0.0767124 -0.049466435 -0.09538821 -0.092093244 0.0071467315 0.0021378056 0.036551405 0.07735322 0.087909885 0.017795384 0.011377228 0.11115441 -0.09103386 0.03959789 -0.0055224444 0.042843252 0.0055777133 -0.045615803 0.031982135 -0.056001455 -0.011510107 0.048641443 -0.013981443 0.02475099 -0.0148094725 0.020320216 -0.024494773 -0.075127 0.06624825 0.10854684 -0.014550843 0.011180752 -0.07067927 0.020318562 -0.038915966 0.0968439 0.055213284 -0.08327646 0.026751272 -0.0028388896 0.002870132 0.00753356 0.1316374 -0.0065096603 0.0034269583 0.043817222 -0.11662349 0.024938274 0.04749031 0.02161433 -0.12091544 -0.071305625 0.019932818 0.01619487 0.011887752 0.048267506 -0.04452796 0.037170433 0.11504288 -0.10039828 -0.016252564 -0.027277721 -0.0179429 0.081764705 -0.049682446 -0.029718757 0.02873971 -0.069551915 -0.106356785 -0.015118744 -0.055720784 0.0045017665 -0.02352729 0.009844599 0.0026084543 -0.07000798 0.01740159 0.11791774 0.039366588 0.056869935 -0.05759355 0.043082617 0.09139885 -0.061570328 0.0744259 -0.13448626 -0.023711886 0.023034718 -0.018691136 -0.026783206 0.022048006 -0.015324581 0.06447776 0.036524665 0.046456438 -0.09048696 -0.012268358 0.00067385257 -0.01746859 0.0055623585 -0.0741451 0.090659074 0.039942022 -0.06920194 -0.052940648 -0.044859495 -0.032690186 -0.073983915 -0.09105289 -0.09446048 -0.11785536 0.0951702 0.046112206 -0.029564336 0.020089863 0.028436031 0.05337448 -0.06468836 0.013013756 -0.061436236 0.015248256 -0.046465684 -0.057302654 -0.0712964 0.004065501 0.050918348 -0.10723797
4 0.063263364 0.028873 0.020790404 0.11160126 -0.103233 0.05184108 0.037207734 -0.029327067 0.03061432 -0.10152725 0.069422245 -0.08384416 0.112614654 -0.06290396 -0.013659305 0.015793094 0.0011285399 -0.05763053 0.09751685 0.01346985 -0.043262094 0.020420576 -0.017451758 -0.02506621 -0.018536974 0.02662009 -0.050068986 0.1162146 0.07738378 -0.019569619 -0.03220822 0.012716357 0.02915862 -0.044991262 0.11692783 0.019361116 0.029987698 0.009845532 0.11080109 0.017022198 -0.012810741 -0.05344882 -0.0010441116 0.11361164 -0.009666059 0.029763795 -0.005995482 -0.02091371 -0.04432121 0.039181978 0.030802457 -0.020922879 0.008774395 0.10545493 -0.0752197 -0.09671804 0.00882354 0.04721023 -1.4741137e-06 0.0044384147 -0.08268238 0.060642194 0.041360427 0.17517667 0.03665814 0.058465373 -0.11502301 0.025441902 -0.096976735 0.015703518 0.0673156 0.0011766227 -0.05250117 -0.027759366 0.031179134 0.05836817 0.09005806 0.023397567 -0.0062333867 0.065587245 0.032563534 0.018566102 0.015966805 0.03145111 -0.024709852 0.008658579 -0.060580086 0.14289787 0.03119479 0.032418974 0.016588124 0.03844223 -0.09805765 0.024878176 -0.018315611 -0.03511502 -0.0044785156 -0.10715874 -0.057697874 0.075795114 -0.0145442085 0.018366186 0.008010545 0.006730251 -0.02275001 -0.029815247 0.009284196 0.01736839 -0.012813642 0.05213301 0.05599545 -0.03369416 -0.030820949 0.06982356 -0.034489684 0.013874176 0.003670688 -0.06834699 -0.00075259915 -0.11446024 -0.06933661 -0.034957223 -0.0027964595 0.04271394 -0.06079332 -0.07470546 -0.056615196 0.034220453 -0.117873885 0.08182877 -0.061652977 0.059222873 0.025870532 0.11357209 -0.080458 0.031403083 0.010681603 0.03668812 -0.081804864 0.09809864 0.047552593 -0.066437855 -0.043887537 0.10564773 -0.022124121 -0.06707172 0.00061073934 -0.11327749 0.039142154 0.034240652 0.038292296 -0.009238744 0.019314308 0.07962313 -0.023213381 -0.029997582 -0.07126245 0.057076134 0.101661526 0.04781776 0.07040746 0.0011141379 -0.0048641004 -0.07505331 -0.004761962 0.035449546 0.080896035 -0.016012207 0.026991135 0.059029505 0.121798135 -0.079597965 0.010812356 0.027929232 -0.042014744 0.03244999 0.022736702 0.058506034 0.0040756203 0.025890227 -0.0076806126 0.038396887 -0.02521155 0.019439416 -0.003160798 -0.013998518 0.042065926 -0.0041226903 -0.0067916396 0.010691784 0.022243183 0.047631286 0.07256401 -0.11973747 -0.070989355 0.017964954 -0.00747366 0.093333185 -0.07577528 -0.07373548 0.059843898 -0.013566101 -0.008958693 -0.035609152 -0.045514077 0.002684365 -0.01314994 -0.026170272 0.060533643 -0.025689358 0.030593408 0.009147353 0.042143587 -0.10184332 0.011597964 -0.100709915 -0.09070429 -0.006050099 0.024516093 0.05520782 -0.014423042 -0.028787157 0.019448167 0.045332752 -0.037216958 -0.047298815 -0.013906329 0.06297237 0.07333386 -0.06052945 0.10662519 0.073697396 0.03696143 0.010032314 -0.07181389 -0.023863079 0.028574482 0.03311481 0.0976368 0.05826003 0.03681568 0.12143182 -0.02571418 -0.04872394 0.09037362 -0.07854363 -0.069640085 -0.021375991 0.052252978 -0.103940025 -0.054237437 -0.032056335 0.020442162 0.076000534 0.02353651 -0.011493141 -0.07405235 -0.093248114 0.017202035 -0.079838306 -0.046408784 0.10539636 0.053402323 0.09918822 -0.012556635 -0.098363645 0.058807444 0.033268437 0.058604766 0.11052311 0.043358132 0.048699703 0.03161137 0.0069376165 -0.08006731 -0.020641308 -0.026960177 0.014705375 0.064365044 0.0039116857 -0.040796608 -0.018970056 0.02601273 0.019088075 -0.027534427 -0.0073101493 0.07659205 0.040530752 0.10737141 -0.022822058 -0.10820518 0.066949435 0.035635974 0.16527888 -0.016913464 0.016444823 -0.01641563 0.04877918 0.07217282 -0.069601774
635 -0.0029643609 -0.008101235 0.0016713717 0.0048395805 -0.049039643 0.0007801705 -0.07930488 0.02383528 -0.09594035 -0.10474552 -0.051000364 -0.06766826 0.06537427 -0.034726493 0.0013455835 0.026835842 -0.05474724 0.044307265 -0.005285679 -0.07664265 -0.06703725 0.03926509 -0.05786869 -0.059326556 -0.05106654 0.032236617 0.027963135 0.011428578 0.04490389 0.0039850017 0.09787417 -0.002962486 -0.046807412 0.074347205 0.010043355 0.024590125 0.00041961076 0.06969991 -0.021071337 0.012308985 -0.0038639123 -0.10973407 -0.0107554 0.1474789 0.027309468 0.11844181 0.029238626 0.036140714 -0.045082994 -0.015009084 0.06754812 -0.013957492 -0.032470312 0.027721567 0.013713837 -0.04221517 0.10756237 0.009715829 0.04029473 0.0018280066 -0.051982664 0.117571555 0.006268988 0.1133116 -0.020722393 0.04594324 -0.05625553 0.0232879 -0.05908044 0.013033824 -0.029396938 0.039682165 0.04773328 -0.0727572 -0.0062176697 -0.05465629 -0.008249168 0.042377044 0.08127427 -0.028139984 -0.07272026 0.07289183 -0.08427301 -0.06343625 -0.00066624006 -0.004769533 0.010913955 0.1541777 -0.03823588 0.045396727 -0.015732178 0.026624385 0.0026487438 0.070212565 -0.06344778 0.0313688 0.09715668 -0.05054085 -0.011507048 0.056421068 -0.02751149 0.074957564 0.037853844 -0.10298827 0.031645544 0.009432333 0.04771174 0.02091594 -0.09599649 0.07449416 -0.06626684 -0.036463484 -0.04406609 -0.049720436 -0.05672956 -0.044085905 0.06879243 0.0065922476 -0.07176983 -0.10151768 -0.004937583 0.0014008493 0.07681256 0.06743592 -0.08183933 -0.04644004 -0.091781355 -0.085472055 -0.032701347 -0.010516502 -0.08167994 0.063684165 -0.02024313 0.056473613 -0.07661639 0.10399116 0.049958322 -0.026137516 -0.010497906 0.10270587 0.040793784 -0.05424856 -0.08655616 -0.012674937 0.00436674 -0.014193936 -0.04032399 -0.0013874165 0.04866778 0.07184291 -0.024017915 0.021263735 0.010532433 -0.018848699 -0.042523045 0.035173588 -0.039741572 0.003415371 0.040065523 -0.023741499 0.08923585 -0.017991351 0.0340187 -0.11458157 -0.05808151 0.002914885 0.09098272 -0.024021983 -0.005522931 0.05989874 0.002525996 0.029321346 0.0218067 -0.012585195 -0.04021948 0.081031136 -0.087215886 -0.016186602 0.018643087 0.045430154 0.0026749081 -0.017965384 0.049243867 0.06170607 0.017575419 0.105790004 0.0538364 0.029646339 0.027108783 -0.0071165287 0.0066798115 0.026257489 0.043633103 0.0057479786 -0.01932604 -0.08918641 -0.164921 0.029898394 -0.01588475 -0.05048228 -0.04181469 0.04003353 0.0101359505 -0.066780224 -0.10082335 0.06562852 -0.12261003 -0.08419602 0.113766156 0.042423658 0.02266185 0.057074584 -0.0069826953 -0.07991346 -0.068501785 -0.028303323 -0.13803995 0.014172165 0.08563221 0.009618865 -0.026181376 0.012357665 0.0003419805 0.11891298 0.009272468 -0.022345986 -0.011280732 0.023624802 -0.033405274 -0.03668897 0.03526335 0.055819273 0.0058485903 0.07833524 -0.09925195 -0.0054805796 0.0025819591 -0.018962638 0.08588609 -0.0077760164 0.056184597 0.052686214 -0.025511898 0.08038165 0.060713556 -0.065270714 -0.007459799 0.026593968 -0.11309582 -0.010891889 -0.058507502 0.031290025 0.09151415 0.021095421 -0.050489966 0.0041415785 0.057701122 0.04011795 0.02824903 -0.0442291 0.0021889925 0.06463883 0.051480006 -0.09278351 -0.023065338 -0.082410105 -0.027967177 0.03835297 -0.0740643 0.05158365 0.029036544 0.056888938 0.04492974 0.017995814 -0.06327915 -0.094385915 0.081627995 0.029078778 0.029047856 0.11254758 -0.015793798 0.030421395 0.05820518 0.0901982 -0.042175975 0.065226406 0.10719726 -0.12503974 0.1263562 0.004311817 -0.07121968 -0.0120846825 0.0020565244 0.1156822 -0.0023128453 0.023953062 -0.05088739 0.12393758 0.05949793 0.046121962
5 -0.05812873 0.10338181 -0.028958151 0.027828448 0.051400468 -0.087867305 0.034649167 -0.010086748 -0.067993455 -0.0057802903 0.07922051 0.12896998 -0.0077717514 0.07585369 -0.006879968 -0.05011281 -0.029947586 -0.0019943945 0.0006877911 0.03770793 0.04397104 0.034819964 0.1167467 -0.022229385 -0.02169428 0.011548443 0.057648998 0.024892362 0.01625551 0.016121006 0.0076860134 0.04469093 -0.013941302 -0.010042235 0.02958218 -0.10008539 -0.04856548 -0.061107595 -0.121063545 0.05707359 -0.063772105 0.08864689 0.01039947 -0.042218827 -0.04489927 0.031640057 0.013069824 0.06328942 -0.07268888 0.10450279 0.09192606 0.04334781 0.12687027 0.014382926 0.083456144 -0.14159486 -0.008027276 0.029405328 -0.056986716 -0.051017072 0.060296543 0.040686727 0.015620944 -0.08354289 0.020492638 0.0407312 0.061971556 0.06293354 0.0013529526 0.0940937 -0.1038366 0.024361063 -0.06669071 -0.008877039 -0.013295861 0.08619574 -0.071067184 0.039307717 0.025502905 0.058398154 0.050582334 -0.03129496 0.012681557 0.10893434 -0.046818044 -0.09287331 -0.10149574 -0.081659555 -0.06981706 0.073430255 0.012987694 -0.01369936 0.11035521 0.051545527 0.11821331 0.07461622 -0.039820172 0.06421162 -0.044360265 -0.0067142346 0.057475522 0.033018164 0.046182804 0.0071015353 0.06643997 0.07505802 -0.084555484 0.046403892 -0.05404981 -0.05930474 -0.010673871 -0.09087778 0.035102766 -0.07400866 -0.059528217 -0.05165832 0.041645497 0.04688073 0.02045406 0.052694723 0.15888052 0.034919426 0.0434533 -0.02266736 0.0011799356 0.029716885 0.022736574 -0.061725672 -0.019365232 -0.07428627 -0.013187453 0.024767991 -0.022119192 0.08075149 -0.060369153 0.041275904 0.045877345 -0.051260404 0.09381507 0.041184347 0.011946659 0.11698365 0.049934488 0.034550257 -0.1273728 -0.030208517 0.05028306 0.116886206 0.027682105 -0.021423878 -0.07228012 0.00042549652 -0.049733456 -0.0075799357 -0.0025988433 -0.028051088 -0.06597594 0.09296783 -0.02986958 -0.038872663 -0.04329769 0.098078795 -0.056355745 0.0038546494 -0.038121942 0.05174581 -0.056021105 -0.010630783 -0.0013972217 0.026034674 -0.0145280035 0.019259159 0.012340268 -0.082719006 0.09834726 -0.048269466 0.023946814 -0.1009309 -0.08064018 0.03855938 -0.0059433216 0.015661402 -0.016465716 -0.0064346846 0.0065785204 0.1185873 -0.070799604 -0.0056240824 -0.0005643351 0.023226453 0.03141369 -0.07005917 0.07429797 0.008333114 0.030837364 0.013318596 -0.008497558 -0.0034966646 0.040815912 0.027785031 0.028571567 0.02860895 -0.0034920375 0.022951981 -0.0450039 -0.032317724 -0.014461747 0.017881714 -0.12265273 -0.012826744 0.018955221 -0.024426002 -0.0022947954 -0.06652492 0.043127656 -0.07290536 0.0049518915 -0.02559548 -0.06256664 -0.0075015062 -0.026292015 -0.010829358 0.067344114 0.027945643 0.19023004 0.091419674 -0.0039083236 0.04974921 -0.115308814 -0.12189594 -0.055264603 -0.14543667 0.049346767 -0.017318128 0.012347824 -0.014678024 -0.04889286 -0.029887324 -0.014493515 -0.05750752 -0.014972739 0.055272825 -0.030810539 0.034954157 0.12792592 0.0011276616 -0.038189366 0.029811222 -0.06422003 0.031466857 0.08245098 0.043116573 0.047822732 0.010989252 -0.009082599 -0.0048761284 0.013889692 0.13375454 -0.11207918 0.010887251 -0.034331597 0.053923186 0.0183746 -0.037175853 -0.093319796 0.10329962 -0.016341737 -0.029185306 -0.045474004 0.03159378 0.0057268515 0.027293589 0.00085251906 -0.057813764 -0.050061986 -0.049571782 0.04788363 -0.03947581 -0.023415606 0.063842766 -0.015572779 0.10553013 -0.021842448 0.038692486 0.017175043 -0.03908828 0.009060705 -0.051806837 -0.040182702 -0.07722176 0.004067693 0.0030650964 0.055240024 -0.07629455 0.042603813 0.0021012665 -0.059341304 -0.015889782 0.04104384 0.023957275
276 -0.07659131 0.026994357 0.023875194 -0.048092846 0.03423206 -0.008432242 -0.10128091 0.027059782 -0.053471502 0.029699229 0.002289475 0.0038858273 -0.09451066 -0.043785393 0.027401155 0.07175552 -0.002574837 0.028747907 -0.084767245 -0.096818395 0.039300118 -0.04029579 0.11065279 -0.03073217 -0.011484378 -0.026710063 -0.043083772 0.07016643 0.040133476 0.08781079 0.0379249 -0.0046482794 -0.047037147 0.030408284 0.07721673 -0.037840478 -0.08890144 -0.054714337 -0.06426322 0.049468815 -0.025988963 -0.028923063 0.05401853 -0.02953143 0.027287256 0.015919298 0.04212707 0.08905941 0.029145725 0.090150364 0.041846965 -0.026753325 0.071344346 0.0063099335 -0.016778229 -0.034104295 0.08243518 -0.03722343 -0.02142795 0.01638135 0.092366345 -0.032183405 -0.06385707 -0.006441105 0.042619087 0.10868074 -0.025537899 0.086011246 -0.07496937 0.08285899 -0.03243747 0.088051684 -0.09607289 0.000529873 -0.022835638 0.035995495 0.10772852 0.03277756 -0.012810532 0.034083746 0.04425051 -0.01977579 0.051805638 0.087286934 -0.058679935 0.023685742 -0.07504043 0.017937236 -0.0017407333 -0.0019273068 -0.14282669 8.05873e-05 0.057836644 0.008450871 0.12046259 0.10822804 0.07994775 0.03293242 -0.013412292 0.0105237495 -0.017149094 0.06458442 -0.020857556 -0.007695722 0.009041883 0.021570826 -0.12498788 0.02258584 0.025285225 -0.032955963 0.022002606 -0.11148244 0.026774585 -0.108590804 0.019439721 -0.07861152 0.057533987 0.0269089 -0.024396077 -0.057781175 0.07157193 -0.03736434 -0.06759243 -0.038620252 -0.021352915 -0.021009441 0.0854593 0.014531357 -0.031230664 -0.09534486 0.032214515 -0.041548725 -0.0722165 0.10180253 0.046613373 0.0072461437 0.059197556 0.090395324 0.06852902 -0.054853495 0.013193947 0.07402384 -0.023133304 0.00041297186 -0.035486676 -0.04929017 0.03470141 0.091110915 -0.04568255 -0.01272201 -0.09763035 0.016355213 -0.017721314 0.10239635 -0.047160216 -0.042162474 0.009470892 0.13975082 -0.0017596015 -0.07543268 0.01842193 0.0154343005 -0.04056454 -0.07239447 -0.06043631 0.04644703 0.020733286 0.08012448 0.12173455 0.006293267 -0.060995843 -0.08251838 -0.011627433 -0.052151065 0.08549468 -0.06785648 0.079015985 0.03707654 -0.01603517 0.0019246053 0.071585104 0.028724315 0.04178423 -0.055367667 -0.09432636 0.028898295 0.014434944 -0.026475547 -0.044402182 0.05071853 -0.014622136 0.07367105 0.14776792 -0.081272155 -0.07591856 0.001190044 -0.047516692 0.022841023 -0.0016522986 -0.038532022 0.011578793 0.0015873325 0.16283613 -0.039901704 -0.07143184 -0.14740203 -0.014735709 -0.009227457 0.0006855708 0.06569666 -1.99013e-05 -0.059646647 -0.023259994 0.00538734 0.0475469 -0.049907267 0.029010495 -0.04441934 -0.048343066 0.009890333 -0.064507335 -0.038087215 0.110112645 0.05586694 0.14632395 -0.0018269352 0.013665301 0.0869685 -0.091253914 -0.113549516 -0.038899727 -0.0722186 -0.08923718 -0.07451635 -0.020446565 -0.004240773 -0.049622808 0.02397369 -0.065992974 -0.050344303 0.033157125 0.07125337 0.03552979 -0.02324774 0.097409256 -0.090920575 0.007560226 0.0009454262 0.011364553 0.060532127 -0.019917345 0.015083925 0.03302271 -0.0065498017 0.041526385 0.03828461 -0.057179403 -0.014975721 -0.044847228 0.024266815 -0.022869159 0.03838388 -0.107349224 0.026983567 0.015010137 0.07978939 -0.061330516 0.00683954 0.018149741 -0.0402391 0.0074094124 0.038749244 -0.12954769 -0.08796025 0.039537862 0.02537853 0.048671123 -0.050835244 -0.023793958 0.02008387 0.054976176 0.0048102094 0.00680819 -0.034844592 0.054786798 -0.039752457 0.019578058 -0.061519776 -0.12518167 0.049261615 0.053476997 -0.014227269 0.018023077 0.060181666 0.0441963 0.06819144 -0.0722218 -0.036492825 0.007369642 0.0005956159
409 -0.0603425 0.046199527 0.012555974 -0.060958914 -0.017274434 -0.035778772 0.023772042 -0.046575207 -0.12690444 -0.010413654 0.0118742855 0.041506775 -0.018415581 0.027359676 -0.062407162 -0.077234305 0.033766475 0.00080072845 -0.036099628 8.8779605e-05 0.06502133 0.05686979 0.1029282 -0.044569522 0.018906388 -0.07336393 -0.0052957064 -0.008604823 0.044368885 0.07528138 -0.019518752 -0.005005827 0.037945054 -0.06007411 0.0076399236 -0.06265728 -0.07473051 -0.06950049 -0.04939392 0.11431188 -0.046079718 0.07760664 0.013101246 0.016387213 -0.015821435 0.105020255 0.024480762 0.060623143 -0.021065982 0.047480706 0.025920091 0.080347024 0.08946284 -0.0058777025 0.12901524 -0.07971559 0.06091519 -0.061882045 -0.03694859 0.012585157 0.026274597 -0.0007859207 -0.063586995 -0.06980636 -0.027084885 -7.67578e-06 0.014615679 0.112359926 -0.08881935 0.15030268 -0.05311548 -0.04921872 -0.0773191 0.0715126 0.046108734 0.1069866 0.002078844 0.044976275 0.08636509 0.06611498 0.052923847 0.03106945 0.06857307 0.06576523 -0.032644942 -0.03626247 -0.027592128 -0.008520929 -0.026029242 0.05819949 -0.013827947 0.025044752 0.054014705 0.027284555 0.12030035 0.1208992 -0.060959913 0.024542484 -0.011896135 -0.050175548 0.0027689023 -0.01406699 0.014891022 0.055216257 0.049036298 0.13140199 -0.034706213 -0.06961148 0.0034521753 0.04537374 0.019617641 -0.083302714 0.012801987 -0.07192607 -0.044121772 -0.0371913 -0.037695315 0.01714855 0.065459274 -0.045380272 -0.011960489 0.0122164115 -0.049191024 -0.07052727 -0.05522333 0.027911173 -0.049188364 -0.018267784 -0.02021786 -0.015732268 -0.10955198 -0.028267099 -0.017023852 0.122821465 -0.042039216 0.06591287 0.10625792 0.0024642155 0.0071955808 -0.041463513 -0.058198556 0.10626125 0.06388528 0.057700384 -0.11062282 -0.091287434 0.0048404373 0.040136743 0.07334559 -0.029703032 -0.09940505 0.02302562 -0.03982465 0.022326812 -0.070772015 -0.052668784 -0.033085648 0.12785648 -0.055959072 -0.07661159 0.02265831 0.083322406 -0.041595254 -0.018639997 -0.055519495 0.09584515 0.00078574487 -0.0058661494 0.00817092 -0.013730434 -0.039606962 -0.038298067 -0.00035282676 -0.054248586 0.043512017 -0.07274552 0.032108486 0.018169843 -0.04445471 0.020917177 -0.01416433 0.05456124 0.07744637 -0.08083916 -0.103561155 0.08751246 -0.005067528 0.04274069 0.02433921 0.0360919 0.009819458 -0.060464162 0.0767848 -0.020503683 0.006027889 0.0077607515 -0.051787276 -0.03091002 0.05092045 -0.026534395 -0.002940485 0.030948896 0.12584639 -0.038809314 -0.06397634 0.026497252 0.028177066 -0.04511351 -0.080692306 -0.026789753 0.05652574 -0.036161248 -0.07135374 -0.071704954 0.056481272 -0.06628425 0.07968749 -0.057757914 -0.08418279 0.04399049 -0.04999034 -0.0027212577 0.061581716 0.016472954 0.20312455 0.028255839 0.028165143 0.010577902 -0.12890624 -0.09823171 -0.061411865 -0.13907783 -0.002423188 -0.010923048 0.023697665 -0.030731875 -0.037588976 -0.018537693 -0.055298887 -0.09496236 -0.073018566 0.0256453 -0.02392088 0.0022336394 0.08813652 0.023256028 -0.07126546 -0.022375343 0.020677587 -0.005900788 0.02983081 -0.06708367 -0.0068111494 0.0027302313 -0.027349763 0.039040025 0.03485119 0.02398412 -0.08214582 -0.016430147 0.0038321277 -0.028271249 0.0564898 -0.0867861 -0.037153166 0.07713522 -0.009495906 -0.05047219 -0.017947976 0.0298627 -0.0049672467 0.019410811 -0.009826701 -0.061659887 -0.102150284 -0.08697306 -0.034166057 -0.07256704 -0.1354045 0.014464771 0.029992267 0.062266137 0.00018023382 0.066049494 0.036590956 0.038416468 -0.0016599299 -0.028187424 -0.019291049 -0.09052991 0.014784524 0.056750204 0.0879716 -0.021736715 0.07587982 0.046262003 -0.060019378 -0.045506604 0.043800287 -0.016318373
644 -0.044135414 -0.019357992 -0.0023647074 -0.017771782 0.030717224 -0.032859344 -0.05550166 -0.068282984 -0.021226473 -0.038085744 -0.021325007 0.076105006 -0.039946917 -0.04955616 0.04471893 0.028215792 -0.013070606 0.035124008 0.034309234 -0.0004212432 -0.035090253 0.06622193 0.13425383 -0.04642508 -0.05625992 -0.033733856 0.13203081 -0.016110785 0.06343781 0.07426749 0.019674394 0.043576397 0.06320484 -0.013928447 -0.051793046 -0.037338108 0.044831697 -0.02765453 0.045041595 0.020688849 -0.065775044 0.03836226 0.027623082 0.05596844 0.009731582 -0.04702646 0.05401471 0.075217724 -0.08161427 -0.02040254 0.043850765 0.040671594 0.110153615 0.0861689 0.002286171 -7.7153156e-05 -0.034523543 -0.03622513 -0.08767518 -0.082152896 -0.02624011 -0.029541304 0.017081264 -0.04579537 -0.0056662383 -0.0075899004 0.028574845 -0.008090014 -0.058373082 0.06389525 -0.056525167 -0.047930356 -0.007489875 0.07305424 0.03026393 0.05932959 0.0052302433 0.07338811 0.064220294 -0.003039719 0.05457465 0.11958327 -0.0279625 0.08296213 0.027131246 0.029755887 -0.048447136 0.091862634 -0.09988655 0.00045875917 -0.07644107 0.11956791 0.024485892 -0.028437663 0.1580125 -0.006640111 0.10855424 -0.07873183 -0.042257026 0.025801457 0.041363843 0.059356406 0.010801082 0.010757437 -0.062269703 0.059674498 0.06964794 0.027340358 -0.03504235 0.087070316 0.026583008 -0.032174014 -0.034877572 -0.10030115 -0.020808661 0.003063252 0.06052399 0.05626349 -0.015849566 -0.09591363 0.071662135 0.02879422 0.0045023574 -0.1547586 0.021012029 0.046594534 -0.043151718 -0.0026646426 -0.030186692 0.053124413 -0.04087334 0.015309859 0.0947077 -0.055385888 0.07583588 -0.093526855 0.08242961 0.015218405 0.03228397 -0.040975142 0.050433557 -0.042233765 0.042409558 -0.043295298 -0.003393505 -0.073035985 -0.023435943 0.05932937 0.060692232 -0.0950535 -0.0827823 -0.038707312 -0.043768104 -0.028316092 -0.002097036 -0.014004857 -0.007959136 0.016594643 -0.051773313 0.0013588608 0.027662853 0.118700564 -0.07306417 -0.011915897 0.013902702 0.12883373 0.028071439 0.048053037 -0.02086271 -0.05805235 -0.0699541 -0.023963965 0.011856034 -0.03916759 -0.044735525 -0.039665375 -0.0073559755 -0.13238712 -0.05430427 0.05205055 0.10398862 0.017042514 -0.04068156 -0.016099093 0.0050819307 0.102374986 -0.0072874627 0.038711615 -0.0072696 -0.034997266 -0.09071856 -0.013683255 0.017270273 0.00010666972 0.0119653605 0.062683254 0.0105846645 -0.049072657 0.043349147 -0.008731417 0.007998942 0.027740603 0.01670969 -0.05762085 -0.09232627 -0.020338468 -0.07169164 -0.036324263 0.028653178 0.03108028 0.08005578 -0.013785953 0.01830363 0.008287161 0.03376709 -0.029398544 -0.08946904 -0.042675745 -0.005782606 0.10627363 0.012758921 -0.09093928 0.074033 0.07918249 0.048421055 0.08116162 -0.04584022 0.10264867 -0.00079485634 -0.07809923 -0.042573906 -0.15851639 0.062711634 0.040649258 -0.05620633 -0.00075742207 -0.019079117 0.022638388 -0.0074336873 0.060695592 0.017650194 0.1882655 -0.01511773 0.042767294 0.022230042 0.057470158 0.0008669984 -0.04084958 0.0152104115 0.017989146 -0.019039338 -0.012549449 -0.016327372 0.024227783 0.05937868 -0.059941854 -0.032833934 0.1277026 -0.10290631 -0.028076814 0.017478181 0.083578944 0.087698735 0.018497339 0.07086246 -0.038747665 -0.13775304 0.033546362 0.0453535 0.00089427014 -0.05390589 0.013849796 0.021036226 0.06646132 0.00044777052 -0.049613565 0.03266562 -0.04800396 -0.06500215 0.096266985 0.14668547 0.09737189 -0.031371836 0.02239706 0.029987885 0.03321859 -0.04412268 -0.06233707 0.09085606 -0.056911383 -0.008961617 0.05991829 0.0053029284 0.03712003 -0.037181303 0.08942509 -0.07279371 -0.10259981 0.06005702 -0.011529511
645 0.0037408979 -0.022583744 -0.0067663705 -0.032586083 -0.029199144 -0.028080966 -0.074756525 0.06273741 -0.089767076 -0.059117373 0.050623257 -0.0060053947 0.025926126 -0.007990172 -0.06213902 0.00052555255 -0.002959512 0.04131968 -0.034332342 0.013692452 0.060029212 0.03999296 0.02549178 -0.024322681 -0.060554165 -0.04154406 -0.008060424 0.027302964 0.015539993 0.03387998 0.0067879 0.02053276 0.01955971 -0.076793075 0.041116517 -0.059908047 -0.07088505 -0.025068175 -0.079667665 0.033844706 -0.019004071 0.103426784 0.039410576 -0.006784374 -0.0014904103 0.047274113 0.02253006 0.07857646 -0.0731551 0.10287868 0.061468627 0.046266343 0.05179285 0.08293662 0.04069079 -0.12067223 0.05899182 -0.066043146 -0.024818724 -0.004896106 0.039938617 0.115154125 -0.0054878886 -0.0890077 -0.017452572 0.013387068 0.014795346 0.034377534 0.0023624573 0.2110299 0.051038086 0.014743123 -0.0073485975 -0.027740028 0.07210902 0.061996672 0.007905427 0.031521153 0.097579464 0.05499632 0.042686384 0.038113423 0.10821329 0.09235602 -0.0856516 -0.007843384 -0.11914461 -0.059875436 -0.101926476 0.062809095 -0.027232515 -0.032649986 0.102860786 0.021188485 0.1638341 0.07865723 -0.08308989 -0.00897224 0.022715513 -0.006854012 -0.02424147 -0.019850628 0.017226016 0.017688727 0.043138005 0.07721631 0.024579251 0.0006678922 -0.035649113 -0.017385738 -0.023205638 -0.013832811 -0.04769394 0.019560652 0.041451987 -0.02500311 0.02692329 0.075262256 0.058992196 -0.051906843 0.034878965 0.0028333669 -0.015486619 -0.055949215 0.008198426 0.063001595 0.0065226164 -0.07361708 -0.032284014 -0.064107746 -0.011948002 0.053250805 0.048728514 0.07116211 0.023129856 -0.007325918 0.026974795 0.007977989 0.09227198 -0.07768655 -0.0256314 0.07646953 0.055332605 -0.004708437 -0.13952819 -0.0090128 0.04459533 -0.004757263 -0.0136087425 -0.008281147 -0.15934168 -0.035951614 -0.0170314 -0.05722105 -0.056125477 -0.060746793 -0.15404785 0.10406188 -0.049445584 -0.0020407012 0.017383423 0.07764643 -0.009885819 -0.014302088 -0.113448665 0.056843054 0.009457504 -0.00075339095 0.0317216 -0.020917075 0.055229742 0.017266078 -0.037632752 0.0046407073 0.0708664 0.004426484 0.027780453 -0.06993901 -0.07915634 0.08398668 0.02583505 -0.007943176 0.01566574 -0.08097546 -0.02759305 0.03169984 -0.0024449676 0.0038464905 0.009771492 -0.014966594 -0.03312328 -0.013318579 0.107106335 -0.032588203 0.10113277 -0.026175942 -0.028776983 -0.028952295 0.07093066 0.054728698 -0.013113359 0.012333611 0.051490027 0.071304254 -0.053567797 -0.094879806 -0.0015137249 0.0065554967 -0.1028037 -0.050124504 -0.069327176 -0.04826713 -0.027687944 -0.04370658 0.07528596 -0.048363097 0.014099061 -0.012212425 -0.11970558 0.034231175 -0.053532608 -0.034874845 0.023578472 0.028774276 0.17005736 0.06900687 -0.12900841 0.00336622 -0.115158424 -0.08800992 -0.020158295 -0.13904525 -0.07942487 -0.017480807 -0.026292631 -0.0044324156 -0.04091031 -0.15375262 -0.015738577 0.015864266 0.00066745526 0.020434933 -0.046859812 0.022032574 0.09140086 0.017144304 -0.08495536 0.0016401357 0.014530878 0.031167304 0.11427469 -0.1312636 -0.010797224 -0.019159906 0.052234728 -0.06947 -0.03448498 0.10302637 -0.015456409 0.054102313 -0.01099636 0.11040081 0.05270796 -0.010754046 -0.029162705 0.109807745 -0.019237503 -0.04313234 0.046372186 -0.0045615244 -0.001867418 0.03364133 -0.01427043 0.0147843715 0.0073897555 -0.05242371 0.0011090405 -0.036574587 -0.09759446 0.008785449 0.03338204 0.04533231 -0.062816985 0.020388145 0.01474684 -0.03424 0.02907028 0.005536287 -0.06504899 -0.05652383 0.027491236 0.08522565 0.021606434 -0.025573067 -0.015498785 0.026964433 -0.09752491 -0.022583246 0.0074646533 0.05759689
1057 -0.0029046154 0.04496533 0.004094164 0.113704465 -0.0054859165 -0.091784455 0.028423984 -0.05292568 -0.0180771 -0.004000987 0.13852316 0.023823418 0.12737294 0.07633945 0.01477528 -0.03420006 0.011727521 0.007634996 0.07665779 0.085843906 0.058669552 0.04935507 0.15543173 0.019779857 -0.013635881 0.039970975 0.05424297 0.013077059 0.06594271 -0.019717343 -0.052552357 0.037396025 0.023296788 -0.03159627 0.062065046 -0.029399099 -0.13323218 -0.010734789 -0.022789976 -0.009376108 -0.012468938 0.10942119 0.003686686 0.07111372 -0.07609662 0.022732621 0.017145338 0.04928263 -0.039132044 0.10905407 0.02084853 -0.0029431696 0.10924629 -0.071889326 0.11185996 -0.045403644 -0.039825555 0.11616862 -0.0064920513 -0.07190169 0.034029927 -8.746818e-05 -0.025015654 -0.015467535 0.0235332 0.01976067 0.10783683 0.08128562 -0.043945603 0.08836703 -0.1274905 0.009590739 -0.06001163 0.04809309 -0.006441669 0.03088972 -0.030202651 0.039218687 -0.039745584 0.013748377 0.018930877 -0.02600304 0.067535855 0.043486584 -0.019244125 -0.087194175 -0.03681518 0.007011493 0.011982166 -0.018630965 0.032004416 -0.041559022 0.08942274 0.052668836 0.055668578 0.037238453 -0.018986382 0.007105284 -0.025517743 0.012412935 -0.012656186 -0.019555124 0.08978299 -0.061419398 0.03021188 -0.001999212 -0.17332274 0.00051832123 -0.06608691 -0.077330366 -0.021154163 -0.10838787 0.03065312 -0.014425783 -0.03487623 -0.036056478 0.025221428 -0.012433521 0.042140383 0.01221474 0.1395359 0.04480473 0.111761175 -0.01737626 -0.0077497973 -0.047103625 0.02366787 -0.061222926 -0.02354442 -0.054879654 -0.027655654 -0.038741622 0.014398907 0.113988794 -0.051642414 0.036107756 0.007054231 -0.045755696 0.07017582 0.047775496 0.016477063 0.056685038 0.082481675 0.007799864 -0.135114 -0.040678725 0.08902989 0.066196784 0.049615066 -0.012623874 0.036741167 -0.07577829 -0.024822922 0.026567828 0.057443954 -0.06978007 -0.08981532 0.08992061 -0.07361946 -0.009305492 -0.026263865 0.090033196 0.031017272 0.04462057 -0.03261423 -0.0018713214 -0.0109131215 -0.008214975 0.0099758115 0.064661786 -0.055134375 0.021000257 -0.022391526 -0.078242324 0.050546963 -0.06655937 -0.015051962 -0.12038878 -0.12115625 0.031726167 -0.024973193 0.07032993 0.013821383 0.022584936 -0.019049475 0.14819664 -0.031131906 -0.03536861 0.036711395 0.059473168 0.07324457 -0.09681824 0.0647425 -0.02308029 0.10286192 -0.015338184 -0.06912452 0.076393306 0.0055526528 0.054438207 0.020961177 -0.028235704 -0.016958322 0.04830035 -0.054489452 -0.004831548 0.014605503 -0.011644987 -0.0643588 -0.15246844 0.098885894 -0.049675684 -0.008666637 -0.11470355 0.065832675 -0.069396965 -0.060288236 -0.025060667 -0.041964866 -0.050121482 0.046070445 0.051853072 0.117062815 -0.0024939922 0.10512948 0.054939047 0.027829008 0.0027536603 -0.06260443 -0.09117434 -3.1902313e-05 -0.08779024 0.022353182 0.0116356015 -0.019016271 -0.014467166 -0.044668738 -0.07157933 0.063878015 -0.090064175 -0.013953251 0.029322071 -0.07155766 -0.015305165 0.11643334 -0.048143998 -0.04778015 0.041858483 -0.024432495 -0.043094702 0.016531838 -0.021035325 0.03594905 0.037544403 -0.02079756 -0.04772003 0.04453034 0.052853018 -0.08518008 0.032040488 -0.036400717 0.014871108 0.006254923 0.018675068 -0.030877264 0.086059295 0.04389306 -0.011587597 -0.108443014 0.011142986 -0.05736447 0.06393008 -0.031214334 -0.036701757 -0.060203407 -0.046240088 -0.011733217 0.07278669 -0.03438551 0.037419513 -0.021240303 0.032473806 -0.016975021 0.009531357 0.04214304 -0.046735354 -0.011757301 0.028128177 -0.026245048 -0.10673703 0.008879409 0.009182977 0.009230298 -0.10212542 -0.034712624 0.033717826 -0.031712215 0.05581436 0.05834282 0.0062910332
6 -0.04843231 -0.009620247 0.017457278 0.0022624477 0.033929173 0.04152922 0.0196005 -0.027835537 0.076591775 0.0671555 -0.019187625 0.010155921 0.042536177 -0.053285155 0.030476343 0.058896534 -0.0739777 -0.09160085 0.020546643 0.06800237 0.030938214 0.05997512 0.010061425 -0.060947392 -0.019048002 -0.03654008 -0.013509875 0.038672864 -0.048510503 -0.124467336 0.01830511 -0.084177904 0.036870737 0.053947065 -0.01637227 0.0030945565 0.12634449 0.0018109669 0.044245172 0.0051158275 0.05293055 0.010530055 -0.03412864 0.012670267 0.007832672 -0.009425805 -0.045891732 0.013918425 0.097389884 -0.05076167 0.0716654 -0.0005374576 -0.0024802836 -0.09080952 -0.0007655 0.07767864 -0.030753922 0.08982685 -0.0040671695 0.03465133 0.057748534 0.026117004 0.008505688 0.07127332 -0.014263478 -0.04420875 -0.037325174 -0.047327206 0.0197816 0.044413064 -0.012096893 0.09049455 0.029774813 -0.056389246 0.095668 0.042826314 -0.010066252 0.09958631 -0.07297121 0.026975036 -0.039160386 0.013003716 0.11487888 0.08423181 0.06803352 0.117411286 -0.0015531289 0.028711095 0.008997906 -0.07086059 -0.069613844 -0.050364707 0.061494995 -0.052054767 -0.064947955 -0.047122374 -0.09749793 0.0009656142 -0.11546957 -0.0032580283 0.0012341422 -0.07198727 -0.026430063 0.042430803 -0.03495401 0.03725001 0.008717331 0.022788372 -0.008087555 -0.014273522 0.11341263 -0.014092389 -0.04470595 -0.07375495 -0.047936365 0.018565254 0.048323937 0.0801954 -0.13331324 -0.050201952 -0.027877519 -0.040101603 -0.038194302 -0.08360543 -0.046403788 0.031389784 0.0138781415 0.12423381 -0.0504726 -0.001068029 0.09196655 -0.007503235 0.016377669 0.01830271 0.06417273 -0.057385005 -0.05356085 0.06474396 0.044811055 0.013499777 -0.042940326 0.005104534 0.06849659 0.012337216 0.011264748 0.03699439 -0.030153397 -0.0090218475 0.012193268 -0.0012928812 0.04940026 -0.013953719 0.04718971 0.060373053 -0.02565242 -0.018362673 -0.099127606 0.004667552 -0.044301867 0.13879009 0.053963337 -0.05839484 -0.11222261 0.018168297 0.029388791 -0.052374907 -0.014841093 0.0017803746 0.0048144674 0.009312758 -0.0655062 -0.088609286 -0.05264932 -0.07994621 0.054549802 -0.04802925 0.027035931 -0.0062720724 -0.06988862 0.0601491 0.15079589 -0.08951846 -0.018980954 -0.019906785 -0.06818951 -0.13167144 -0.07283191 -0.00788345 0.0015690677 -0.06052857 -0.00039416796 0.06743618 0.06325943 -0.019990243 -0.048609342 -0.11159288 0.06700822 0.012827175 0.04425584 0.0007438918 0.06098505 -0.0048539876 0.054943576 -0.0022353493 0.012531759 0.11783261 -0.10156013 -0.0052870438 0.096673615 0.0441236 -0.05916733 0.10477965 -0.05402602 0.051068373 -0.015223775 0.020819644 -0.027526844 -0.13268834 -0.07441903 -0.042833526 -0.025702816 -0.09965368 0.056511387 0.09840562 0.062452853 0.020080796 -0.032426145 -0.090217985 -0.025155542 -0.015870288 -0.058807965 0.024512826 0.030798867 0.07808345 0.008025798 -0.03652714 0.040048007 -0.056305647 0.040233664 0.12252477 -0.07207848 0.11704562 0.018119266 -0.016572235 0.0045554014 -0.11169768 0.07857325 0.059323784 -0.016686378 0.03231062 0.019450543 -0.0505435 0.08892646 -0.10396689 0.0540965 -0.11124944 -0.015159247 0.057164047 0.051988702 -0.006744689 -0.043835845 -0.040191337 0.08623989 -0.01283707 -0.070692256 0.06834809 -0.018963551 -0.042593956 0.02959409 0.021211848 -0.027710665 -0.07210129 -0.044570982 -0.006896947 0.0036952477 -0.020622514 0.11873923 0.007349728 0.013552945 -0.058750983 0.069109276 0.072977506 0.03760433 0.027954586 0.03901151 -0.063873924 0.059799567 0.054008093 -0.049333915 0.08734331 -0.022245653 -0.093750395 -0.07375306 0.023160446 0.02754249 0.02519726 0.053380508 0.13187914 0.09047359 -0.012660361
874 -0.027032297 -0.015193047 -0.011371977 -0.0065528243 0.039359067 0.009477985 0.031804938 -0.013363116 0.06121111 0.04537501 -0.019465594 0.023798866 0.045395438 -0.057275675 0.036699444 0.053969864 -0.04128008 -0.08325348 0.022314217 0.07467845 0.046141125 0.098445036 0.008614118 -0.052218817 -0.042749494 -0.036640685 -0.020929446 0.04601315 -0.05681289 -0.10706377 0.022635272 -0.08941788 0.028830297 0.034179065 -0.005545312 0.022331588 0.1325091 0.0011019954 0.044568356 -0.02155661 0.0539982 0.022590255 -0.032253735 -0.010862424 -0.012602998 -0.023608325 -0.05619 -0.010374782 0.07610706 -0.07577171 0.07826177 0.0059441924 -0.0047160177 -0.10668108 -0.020202655 0.09219949 -0.03170301 0.097533084 -0.009438022 0.027981719 0.057467785 0.027660705 0.01754162 0.06921224 0.0015966443 -0.039938796 -0.031858638 -0.026522705 0.012101969 0.05372748 -0.017970657 0.07321366 0.03769278 -0.031746756 0.10319443 0.035792477 0.0031388695 0.08725219 -0.080638416 0.0348047 -0.035427243 0.049142733 0.103378884 0.07108123 0.069381885 0.105994 0.009200328 0.03182804 0.022764983 -0.06371566 -0.061670605 -0.030073905 0.042455982 -0.06631862 -0.06332135 -0.047765967 -0.10883691 0.021710277 -0.11287585 0.017380627 1.300554e-05 -0.0761118 -0.038569883 0.03977393 -0.02597025 0.017464053 0.0062831556 0.0099955695 -0.029293954 0.0066489335 0.09968372 -0.011988524 -0.053175367 -0.07580086 -0.05176151 0.025097115 0.029643122 0.066911615 -0.1511833 -0.03915935 -0.02397258 -0.0351292 -0.011597029 -0.07380922 -0.04461996 0.069471896 0.0073258444 0.11417557 -0.059464935 -0.0048251287 0.10249204 0.014124217 0.02611302 0.030237122 0.07149994 -0.060143586 -0.054660857 0.053895254 0.06571016 -0.011950708 -0.043247927 0.029996393 0.096720666 0.0063619707 0.02177107 0.047429804 -0.0284739 0.01877276 0.0020502624 0.0017286848 0.032618422 0.009852463 0.051266585 0.06263739 0.0020213048 -0.024607712 -0.103739746 -0.029649379 -0.053197373 0.13550816 0.046010666 -0.060703952 -0.10640986 0.031532064 0.044564094 -0.042915482 -0.0021555999 0.012620999 -0.015515546 0.00912811 -0.065807335 -0.07984778 -0.060169 -0.062353905 0.040055044 -0.0123718055 0.023584358 -0.015426494 -0.07304229 0.060998533 0.16707322 -0.097940214 -0.0021031455 -0.023888618 -0.042571474 -0.1287578 -0.07068091 0.00033206565 0.009207468 -0.054671187 -0.03283441 0.07074475 0.06052713 -0.045124065 -0.027281476 -0.11092339 0.06810855 0.020551695 0.051795524 0.021586427 0.054716397 -0.016051099 0.052800655 0.008001834 -0.0046364707 0.1178131 -0.08564744 -0.02005068 0.0958863 0.025654268 -0.03795795 0.100252844 -0.036819663 0.056602333 -0.04199799 0.048117094 -0.031565465 -0.11856532 -0.09805977 -0.04051416 -0.02645491 -0.095895804 0.074136816 0.10511952 0.057795554 0.047954515 -0.021512011 -0.09091598 -0.025762081 0.0059676403 -0.060174104 0.01233023 0.019952007 0.057458237 0.0019514196 -0.024281422 0.035291053 -0.042871382 0.022307253 0.11811168 -0.07356618 0.09629326 0.040712997 -0.01770745 -0.0021029885 -0.13023753 0.051722866 0.045846935 0.014738334 0.037899468 0.015152127 -0.05130526 0.06401448 -0.08751757 0.043403514 -0.116670474 -0.027448857 0.0687653 0.036413483 -0.0056487154 -0.042633492 -0.03562557 0.08397074 -0.004017675 -0.051245287 0.07409626 -0.043904442 -0.033293866 0.02014951 0.024174497 -0.036970966 -0.06760854 -0.047525734 0.006506126 0.020206582 -0.031991214 0.12264977 0.025280511 0.0010005549 -0.10896075 0.105042174 0.039051104 0.06775638 0.03671548 0.058810122 -0.023257453 0.08092348 0.036820624 -0.050092462 0.08240954 -0.017228026 -0.09487161 -0.06429632 0.026668238 -0.024667278 0.013834578 0.075340174 0.13057396 0.09699156 0.0017893397
7 -0.020494143 0.06929435 -0.0074121202 -0.06256895 -0.036899116 0.013374766 0.053217757 0.011360502 0.05756581 0.014747119 0.025989972 -0.043284897 -0.047185283 0.14321873 -0.04630586 0.020831816 -0.085783534 -0.09387439 -0.04903302 -0.08189739 0.083259724 0.099510536 -0.094202735 0.016741438 -0.013772758 -0.022123534 -0.030207768 0.002308988 -0.010383469 0.00900654 0.043734655 -0.12607208 -0.04350744 -0.019183002 -0.041550472 0.053747587 0.03493441 -0.038280193 -0.038383912 0.009578508 -0.015565469 -0.015984582 -0.006742113 -0.09533151 0.029300973 0.10983124 -0.020457502 -0.055593695 -0.09647159 -0.045369748 -0.105467975 0.05422652 0.07471998 -0.07265482 -0.07521771 0.078293934 0.0014283089 0.056678794 -0.030554133 -0.008711906 0.0030423205 -0.051023826 -0.051751755 0.011323267 -0.038510956 -0.0957204 0.074935175 -0.09720866 0.0973487 0.100665756 0.004060366 -0.08928814 0.0047062347 -0.040514756 -0.024262361 0.050036937 -0.018282779 -0.07724488 -0.061795797 -0.057877656 0.047318067 0.069739744 -0.0009478238 -0.007946703 -0.028782004 0.072456434 -0.08401489 0.0211575 0.021700297 0.095284574 0.0318292 0.033209655 -0.0802149 -0.03759907 0.0204792 0.03175359 0.05957357 -0.055229675 -0.006153464 -0.004945037 0.07683568 0.07468453 0.04719267 0.09626915 0.04656607 -0.0029691544 0.023486307 -0.015873242 -0.00502476 -0.032367665 0.063259415 -0.0526883 -0.00950822 -0.0060522803 -0.04835098 -0.0240689 -0.016013209 0.076839276 -0.06782286 -0.09618652 0.04309884 -0.018798143 -0.11099532 0.025666682 -0.07203285 0.0103931585 0.07032506 -0.0056081293 -0.10190707 -0.00847633 0.09638906 -0.022022681 -0.09953942 0.013954375 -0.025676046 -0.09467081 -0.013958437 0.013019961 0.07676761 -0.06210166 0.07834977 -0.0585702 -0.011406421 0.03201582 -0.022243083 -0.033738088 0.043855075 0.0048408704 0.01719402 -0.08312877 -0.03841447 0.08630161 0.14730296 -0.009252482 0.024250887 -0.013121975 -0.021039287 0.028372068 -0.017774379 0.05452691 -0.034991205 -0.09352565 -0.03237719 0.038688876 -0.010753667 0.067024164 -0.12714702 0.040786255 -0.0367988 0.014536117 0.13936423 0.020301415 -0.041969404 0.085072115 0.08647432 -0.08436628 -0.08029189 -0.060333647 -0.04624693 0.045824584 0.047472604 -0.015093104 0.044522177 -0.0052231913 0.13273685 -0.100958034 0.10173888 0.02079447 0.047832727 0.038605865 -0.08810778 -0.06375775 -0.02139703 -0.018627673 0.0021975725 0.09887242 -0.058057226 0.021557592 -0.047426943 -0.07041412 0.018418772 0.0802427 0.06069049 -0.015248568 0.118488796 -0.06252336 0.035676114 -0.01983465 0.05389032 0.07243812 -0.06719676 0.04352351 -0.00951863 -0.025164405 -0.09149872 0.09190619 0.041681442 0.018289654 0.08302374 -0.040660255 0.0028318686 0.035373226 -0.02273104 -0.10350853 -0.042381227 0.021346211 -0.043777175 0.0087579 0.006520534 -0.042365618 0.013110508 0.021168802 0.017839767 0.0063391645 0.011646339 -0.07237261 0.026977552 0.012480566 -0.0626808 0.06937336 -0.04854091 -0.048737433 -0.0055620833 0.0556489 -0.020379327 -0.049795795 -0.042863943 -0.096165426 0.0379645 0.0060369596 0.058285866 0.05594667 0.09352617 0.047568254 -0.0009209953 0.07897731 -0.08061315 0.121481515 -0.10163095 0.01627951 -0.03952829 -0.09265759 -0.038497657 0.048105817 0.03696022 0.08190383 0.06294978 -0.089043565 -0.04697541 -0.0046798005 0.031995922 -0.01721523 0.018287865 -0.048873015 0.064991824 0.02411633 -0.07271942 -0.07919209 -0.005402892 -0.04183253 -0.09680264 -0.048833147 -0.0699423 -0.058992386 0.0542357 0.097346656 0.031153588 0.04418058 -0.012349711 0.038386397 0.0061782086 0.039938748 0.012582319 0.013741626 -0.03612667 -0.061606698 -0.10188734 0.008713178 0.06051777 -0.039929524
228 -0.04092051 -0.0010999485 -0.02363617 -0.004719093 -0.048852548 -0.0017539724 0.03335135 -0.027098179 0.020518897 0.01969604 0.06687084 -0.064706445 -0.04182398 0.11894315 -0.047484532 -0.006081255 -0.09999178 -0.07813112 -0.016398983 0.013842112 0.02697826 0.029509757 -0.08851242 0.023605324 -0.039444014 -0.00796048 -0.058677156 0.016460741 -0.058036912 -0.0059323953 0.030342553 -0.11424349 0.025914453 -0.002398006 -0.08203076 0.08999618 0.038382754 0.0672561 -0.02543139 -0.0022023367 0.013511239 -0.035535857 0.014131891 -0.060368594 0.038180035 0.05080844 -0.022551598 -0.029401228 -0.097052515 -0.08764832 -0.17136507 0.04107288 -0.018536774 -0.053412642 -0.0894237 0.060128745 -0.0032950484 0.019419437 0.022114737 0.0102683315 0.056358673 -0.13011196 -0.007036283 -0.0030165336 -0.011633409 -0.12105496 0.05081258 -0.11715368 0.07634738 0.09663838 0.017939841 -0.12244587 0.05290063 -0.04352569 0.03977123 0.0783368 -0.018420748 -0.011338196 -0.03457684 -0.07382242 0.012440394 0.08240714 0.030952439 0.020738203 -0.07399408 0.06093928 -0.0622352 0.017622102 0.08338511 0.09305078 0.037471652 -0.010673393 -0.030377807 0.005384095 0.03911191 0.10752295 0.06570644 -0.066640995 -0.0008305529 -0.00348239 0.11444259 0.014856691 0.034051195 0.051722027 0.0100706145 0.026475359 0.04851231 0.053995848 0.03485491 -0.09017564 0.038936745 0.01881998 -0.06800502 -0.0074434895 -0.024514081 -0.08453209 0.022996204 -0.00030362594 -0.015455846 -0.093330204 0.048100755 -0.0020815996 -0.106644526 0.08910762 -0.11417953 -0.035812207 0.087905854 -0.008519212 -0.07849795 0.0027149646 0.085633546 -0.11995844 -0.05839256 0.04265731 -0.014132378 -0.07678036 0.008493683 -0.009376511 0.030938508 -0.03841254 0.039871667 -0.024229238 -0.0037652017 0.054147676 -0.0308733 -0.0077425544 0.042708844 0.011285168 0.087653115 -0.051436596 -0.035623647 0.103049174 0.15442863 -0.016625026 -0.017034227 -0.035959356 0.027857676 0.05397545 -0.020386934 0.036500487 -0.07380651 -0.051649846 0.020321101 0.06614493 -0.055861305 0.029227799 -0.08334451 0.119545 0.049470566 -0.017304717 0.07907913 0.031431578 -0.031211577 0.038877793 0.0053529693 -0.07822276 -0.074916616 0.004324286 3.0345407e-06 -0.016708843 0.051893238 0.042481314 0.0039022455 0.017250376 0.116151854 -0.09667079 0.021714102 0.026032899 0.04625987 0.018597377 -0.08994774 -0.006479049 -0.04730883 -0.041216392 0.06877971 0.05570799 -0.018566636 0.0047521223 -0.02987794 -0.057703536 -0.04479617 0.05811715 0.10677151 0.030345833 0.05813433 -0.089619525 0.019580182 -0.05763445 0.090426385 0.04032856 -0.087215684 0.044252213 -0.043815024 -0.019417657 0.014899229 0.10238435 0.049431615 -0.012131245 0.04538375 -0.10566364 0.028893998 0.036471494 0.016464008 -0.13656804 -0.06910616 0.06825803 -0.043685913 0.032084633 0.040427674 -0.042726424 0.061297804 0.08767898 -0.035822343 0.0067997803 -0.03191684 -0.026558157 0.04977369 -0.045614254 0.0050141416 0.06578595 -0.05815866 -0.04728585 -0.008769451 -0.01500258 0.022348834 -0.04525575 0.010108439 -0.05737263 -0.05157475 -0.01628785 0.09119951 0.042518117 0.06333093 -0.03112953 0.049496975 0.0923764 -0.072893426 0.090821244 -0.12636586 -0.0037901509 -0.024110576 -0.02298387 -0.029702043 0.048891645 -0.033711188 0.03448989 0.0059668897 -0.009492807 -0.09528273 -0.036280032 -0.018701335 -0.03146097 0.033019938 -0.024185322 0.056651626 0.051396303 -0.04688351 -0.09284495 -0.009788047 -0.046164557 -0.07570613 -0.063144594 -0.09976031 -0.07613028 0.08557746 0.05762684 -0.055249076 -0.010619335 0.011717427 0.04391491 -0.07004646 0.037373308 -0.015353478 0.008249779 -0.079395145 -0.07097705 -0.07581554 -0.013263536 0.09426495 -0.10048134
247 -0.043298222 0.11710972 -0.02217823 -0.066245615 0.016713496 0.046664607 0.09082346 -0.0029203477 0.07456291 -0.028330715 0.059367783 -0.03585946 -0.021636639 0.07003458 -0.07684552 -0.0060863737 -0.13645695 -0.104238756 -0.091912806 -0.052471343 0.07373263 0.11043889 -0.12805401 0.016210355 -0.0047540865 0.020425884 -0.0027678795 -0.034286022 -0.036904503 -0.035741493 0.08150203 -0.068148114 -0.044843752 0.004660685 -0.047554024 0.072301656 -0.021946674 -0.10497274 -0.022438385 -0.0076010535 -0.07094978 -0.08715669 0.012284293 -0.10461928 -0.020692116 0.1293725 0.043403603 -0.002117724 -0.086246535 -0.018363787 -0.004631842 -0.0044643697 0.059197407 -0.019323774 -0.06472884 0.07069263 0.06446985 0.018837484 -0.011115762 -0.010697299 -0.013803134 -0.040804233 -0.05396837 0.038470943 -0.09096255 -0.11220518 0.0031371282 -0.019884562 0.018533561 0.14300928 -0.028179497 -0.091311775 -0.02779532 -0.0582858 -0.0037737766 0.038602006 0.021643043 -0.109667234 -0.08591689 -0.074612275 0.025274983 0.09665218 -0.01725153 -0.054033294 -0.00245954 0.05253947 0.015263365 0.040788412 0.0048978366 0.04592997 0.0034447077 0.025717454 -0.098704144 -0.047341246 0.0368249 -0.05942607 0.033422027 0.0107426625 -0.030303942 -0.017212866 0.03324629 0.10826507 0.021496905 0.07189962 0.11113839 0.008950473 0.039028082 -0.058745075 -0.06202165 -0.03575187 0.098400176 -0.052059352 0.02120059 0.010659212 -0.05279548 0.012788938 0.010713684 0.12295831 -0.10856298 -0.051207893 -0.020908745 -0.026513094 -0.0730723 -0.011377678 -0.020971216 0.027872778 0.006377438 -0.043441303 -0.03660154 -0.009144236 0.08351201 0.023783602 -0.10421586 0.018453885 0.0036678067 -0.11121283 -0.020462012 0.0128793735 0.09197971 -0.05787592 0.07510434 -0.024544302 -0.03215821 0.09574081 -0.026329529 -0.03790455 -0.0037535755 0.0011636504 0.026321232 -0.043250497 -0.034413114 0.05818698 0.055743575 -0.02242927 0.09674534 0.032735556 -0.029701147 0.027436277 -0.07175165 0.11039315 -0.050321937 -0.08378602 -0.017503308 -0.0151588265 -0.0076917075 0.006345125 -0.11882501 -0.059661984 -0.03964442 0.0032311713 0.10789216 0.026232384 -0.047085345 0.054621443 0.09268328 -0.004081702 -0.06956614 -0.098481 -0.02333286 0.10220788 -0.02792175 0.006869562 0.060632877 -0.009665288 0.07961158 -0.056061454 0.08153851 -0.0052270666 0.052176807 -0.006657298 -0.06343922 -0.005008492 0.013156404 -0.0018742168 0.003429118 0.06559232 -0.057537515 -0.024252046 -0.012618005 -0.07014293 0.058824625 0.06219947 0.08287246 0.028819848 0.060757346 -0.07200257 0.059433058 0.005176047 0.035318546 0.028210066 -0.035717808 -0.030747356 0.004994104 -0.019757401 -0.09162962 0.08168926 0.028762152 0.030191233 0.08393768 -0.04767937 -0.031611063 0.037997983 -0.00814323 -0.12807009 -0.0027729305 -0.008675228 -0.0039228178 -0.054840986 -0.01954004 -0.05387106 -0.113776475 -0.039456766 0.09757831 0.03170933 0.03250072 -0.0573483 0.04606069 0.0395009 0.02537342 0.04838947 0.025479186 -0.031310238 -0.044447437 0.1167054 -0.0023932045 -0.049405966 -0.07301989 -0.07906746 0.065034784 0.10456743 0.0210835 -0.012365257 0.0823728 0.005531569 0.006044739 0.05185844 -0.04728684 0.14271365 -0.09670877 0.017065588 0.004724266 -0.1240497 -0.017181654 -0.020365758 0.059607983 0.04813709 0.069378816 -0.15754023 -0.045047544 -0.03289749 0.017731534 -0.05014358 -0.022663696 -0.028903384 0.045340735 0.01679579 -0.103728324 -0.0018558723 -0.0027855139 -0.041481376 -0.090595834 -0.014446556 -0.021576654 -0.03499648 0.046831537 0.05227971 0.027884725 0.02869951 0.023127336 0.038433693 0.08424485 0.016940085 0.028919421 0.013300969 -0.027011659 -0.027855176 -0.04144657 -0.022999832 0.0052383067 0.046400853
8 -0.04163474 0.02996352 0.051080666 0.029760761 0.06900838 -0.057779867 -0.06928724 -0.017089214 0.057937708 0.096716344 0.092216074 0.059124637 0.052193247 -0.11930337 0.040770218 0.017159095 -0.03370578 0.064552344 -0.027285388 0.031736445 0.09373741 0.07813507 -0.062067173 -0.0045828363 0.027049696 -0.023281002 0.008390337 -0.054230697 -0.10283501 0.009834845 0.020230308 -0.052340288 0.010739482 0.12704052 -0.004370267 0.005600817 0.039322335 -0.029708533 0.0152729545 0.013696747 0.007930636 -0.03668154 -0.11139432 0.08011374 0.05109331 0.1357148 -0.07491195 0.068372466 0.011210755 -0.028132718 -0.063949004 -0.00785803 -0.052658852 0.10146686 0.008810481 0.041226096 -0.104948245 0.06715452 -0.08350385 -0.14042443 -0.027524048 0.08227371 -0.008330689 -0.024265872 0.015743952 0.06317974 -0.04010014 -0.061516646 -0.014709126 0.013973227 0.106532656 -0.010297607 -0.022283405 0.041636568 0.035796963 0.030889839 0.0548883 -0.0441958 0.022409946 -0.07638885 -0.01903695 -0.07795942 0.13549966 -0.05174927 0.05258829 0.0542683 0.017038306 -0.01501021 0.028654885 -0.046312444 -0.03438001 0.07060617 -0.036886528 0.054092053 -0.007968715 -0.094579436 0.015150858 -0.016529629 0.059559062 0.10385461 -0.0043714475 0.023401042 0.060269363 -0.06436527 0.1323071 -0.02202533 0.016525032 0.06360029 -0.00017177583 -0.009698526 0.020587064 -0.029520702 0.044862784 0.015772037 0.0027010317 0.04752077 0.053703204 0.02032817 -0.04282308 -0.0023948625 -0.057640083 0.007821818 0.029295817 -0.032397915 0.023712814 0.016591735 -0.0025179724 -0.07581089 0.03419695 0.0063289898 -0.08705955 0.0203464 0.0019448136 0.04585035 0.11918178 0.02427159 -0.0046384577 -0.029432392 -0.05688851 -0.01800113 0.036183987 -0.074365795 -0.026796471 0.03584034 0.06643038 0.0052147475 -0.065040745 0.034171067 0.036977526 -0.0060592806 -0.09117242 -0.06890473 0.06566582 0.0036991183 0.07336011 0.070643604 0.024223328 0.14816412 0.036998075 0.022938684 0.027184552 -0.025896337 -0.028554974 0.14089735 -0.024250094 0.07438167 0.064969234 0.026961261 0.016761446 -0.041651223 0.047105532 -0.08361296 0.0028432813 0.07712463 0.007235087 -0.035711676 0.08722871 0.14684926 -0.09563191 0.017702332 0.030922573 -0.013654141 0.00034052294 -0.011044463 -0.08720266 0.07514435 -0.100485355 -0.07760458 0.06984 0.035945542 -0.024820792 -0.05149657 0.0063274982 0.09131527 -0.06012796 0.005678396 0.07880259 0.031918354 -0.059163757 0.04650017 0.04944484 -0.07630467 0.0150202075 0.038968816 0.04630088 -0.047159113 0.06449859 -0.018530844 0.05696554 -0.05475075 0.049604297 0.08096339 0.042916708 -0.121688224 -0.033141322 0.074334055 0.004562283 -0.06397329 0.04490166 0.046601877 -0.12937377 -0.029195687 -0.036954954 -0.03484412 0.034875773 0.059526294 0.014256991 -0.022057712 0.02101763 -0.07438999 -0.06712432 0.15805428 0.12390664 -0.025243595 0.0317591 -0.048859835 -0.058074478 0.018116076 0.02374567 -0.022504527 -0.011032012 -0.010722216 -0.020864403 0.0085584335 -0.11146095 0.0068729264 0.0651051 -0.045534723 0.06312201 0.0725246 0.06036581 -0.02291902 -0.06788013 -0.03286019 0.020789986 0.007911352 0.09354778 -0.072684035 -0.046322744 0.02124485 -0.008238379 0.08753601 -0.020216903 0.020038338 0.015553185 -0.07097215 0.0070502064 0.044294577 -0.0027723266 -0.010034442 -0.029906742 0.0455238 -0.08660529 0.006140394 -0.045044404 0.018769125 -0.0016690927 0.026389886 -0.024413232 0.0021426727 0.14618263 -0.09546517 0.08181341 -0.052520387 -0.08389908 -0.06791898 -0.075110726 -0.032449454 0.015526306 -0.036097772 0.15130116 0.042299017 -0.0008213676 0.0065616686 -0.032740075 -0.04104142 0.009949291 -0.03902001 0.033882715 -0.07258935
418 -0.046572942 0.009676471 0.054351214 0.013912567 0.099728264 -0.040373694 -0.065184094 -0.011072911 0.08862805 0.100599 0.08173909 0.041870385 0.030596226 -0.11549221 0.03885069 0.029657304 -0.03952083 0.050640136 -0.038005333 0.04719365 0.075725794 0.081098646 -0.0752571 0.004550346 0.020664819 -0.0321097 0.021100901 -0.050799407 -0.0868708 0.021584978 0.004189744 -0.07578188 0.022149311 0.10284028 0.016218996 0.010783068 0.030177357 -0.041985303 0.03408491 0.02896791 -0.026802896 -0.026116647 -0.13108456 0.05567112 0.046593796 0.15179187 -0.058192715 0.07988574 0.015491182 -0.020875137 -0.096993074 0.0027262904 -0.031183979 0.095985316 -0.011884019 0.04239194 -0.11259626 0.04840639 -0.06859045 -0.14425755 -0.032964967 0.06747787 -0.011232056 0.0059897443 0.04149222 0.06293288 -0.030677764 -0.07129831 -0.00043796512 0.0038181602 0.086535364 0.002270954 0.010574264 0.041019075 0.023488568 0.029675987 0.065227166 -0.06087673 0.036135986 -0.072579764 -0.024168493 -0.07482964 0.13861635 -0.035248242 0.05022421 0.058787387 0.034771577 -0.022120284 0.0148595795 -0.012456918 -0.020920372 0.07010369 -0.013497149 0.043724153 -0.005982116 -0.101095565 -0.018057145 -0.019331938 0.042927552 0.09074793 -0.013169566 0.030533899 0.05043357 -0.05020136 0.13272364 -0.002603075 0.042032585 0.06878395 0.006430513 -0.003928796 0.016514989 0.003154667 0.053153917 4.4445273e-06 -0.011370207 0.019658232 0.046377175 0.019295981 -0.02441187 0.0010286202 -0.048025645 0.018760128 0.03163768 -0.03518118 0.03356944 0.026635032 -0.009606148 -0.077377334 0.018252004 0.015416004 -0.06446441 0.021742037 0.028419226 0.04581464 0.13670325 0.013515517 0.003051185 -0.024412591 -0.086243525 -0.028129874 0.045165986 -0.079002656 -0.05636482 0.014988722 0.06519078 -0.0005084793 -0.07580813 0.02010472 0.0421298 -0.004394833 -0.081564985 -0.054385167 0.07452903 -0.014821378 0.062705144 0.08560562 0.043879088 0.12600555 0.018690104 0.033613354 0.032308713 -0.041386686 0.0038530275 0.16456942 -0.046506714 0.077283405 0.031320218 0.044165757 -0.007040291 -0.03658219 0.041746486 -0.06993982 -0.014636345 0.056653492 0.014242034 -0.018898226 0.071800664 0.14026532 -0.110034436 0.013541947 0.0013829137 -0.01564153 0.015867954 -0.0150653655 -0.09880572 0.08392767 -0.08862897 -0.10042435 0.06619038 0.046822388 0.003330188 -0.06528281 0.019676968 0.07682633 -0.068227276 -0.008759471 0.07879953 0.013462825 -0.02899029 0.04824103 0.010063789 -0.050499998 0.007612495 0.05947051 0.07263994 -0.09436908 0.06267429 -0.036383044 0.06990575 -0.048554838 0.033741932 0.10492255 0.05331428 -0.14191571 -0.0327699 0.07944681 0.0011407275 -0.050436687 0.019158192 0.045139287 -0.11102571 -0.04391632 -0.05639933 -0.043926343 0.034722477 0.05014667 0.014911615 -0.048672456 0.03461161 -0.06251893 -0.050652448 0.1317843 0.12731206 -0.028593037 0.050782666 -0.05030442 -0.025630776 0.018416582 0.018278997 -0.046235837 -0.010619582 0.015780644 0.0066604726 0.027537933 -0.09055593 -0.026854947 0.05277361 -0.043987837 0.04849912 0.072701246 0.063817665 -0.011462345 -0.049347904 -0.01936688 0.0045634913 0.031952 0.10381686 -0.07845046 -0.02103341 -0.011099599 0.010347301 0.086656 -0.038027655 0.038748935 0.03660319 -0.07975909 -0.017838165 0.031758595 -0.01227584 -0.023962716 -0.02472624 0.034759432 -0.08809716 0.025058262 -0.05509947 -0.00943577 -0.018687459 0.028487468 -0.009716209 0.01631948 0.15212452 -0.10038795 0.08417383 -0.044750348 -0.10287983 -0.0536735 -0.08258062 -0.045807246 0.035959955 -0.030908443 0.12935884 0.071726196 -0.01084705 0.012128247 -0.003527253 -0.029037774 0.057930805 -0.028124042 0.037851136 -0.04658891
534 -0.0068775252 0.066149764 0.02208197 0.030710358 -0.0020723448 -0.039461255 -0.06808887 -0.06007571 -0.053371277 0.06195788 0.10311756 0.06603107 0.047656342 -0.1459651 0.051620707 -0.02986748 -0.001994425 0.09046149 0.0048740837 -0.02052578 0.07335112 0.0058189495 -0.00948558 -0.03423812 0.027931074 -0.02545284 0.011324404 -0.04354236 -0.065104894 -0.004240954 0.08595916 0.0014371186 -0.026547888 0.14998227 -0.062219575 0.007027019 0.042005714 0.0074694613 -0.010747021 0.003835564 0.0987698 -0.04087858 -0.07533032 0.120943755 0.059613485 0.0745136 -0.09173348 0.022433423 0.027727295 -0.029065292 0.0065814415 -0.01638324 -0.11311629 0.08694527 0.037202686 0.038765837 -0.07605789 0.07434476 -0.085764825 -0.04157977 -0.017723525 0.054081213 -0.035167344 -0.06997263 0.022406429 0.06493137 -0.059397306 0.009030021 0.034079548 -0.008993229 0.11614219 -0.058324367 -0.098507635 0.042525213 0.010881648 0.026315099 -0.028500209 0.04041434 0.013651241 -0.053995784 -0.008707312 -0.054570243 0.087598726 -0.10535366 0.064042196 -0.006944617 0.01083937 -0.017152693 0.045002136 -0.0998463 -0.024652157 0.051023018 -0.09244607 0.056892034 0.00048719815 -0.054223154 0.05822055 0.012717096 0.06745626 0.09444343 0.019111264 -0.02107721 0.049411505 -0.053813763 0.103894375 -0.075454034 -0.03148132 0.017845634 -0.01699738 -0.0487849 -0.009888733 -0.06339882 0.03375232 0.033713467 0.014632578 0.09023827 0.040444106 -0.03145285 -0.06469465 0.005151985 -0.09145764 -0.019487878 0.012356728 -0.031597793 0.02297983 -0.004172895 0.030345134 -0.056891534 0.057146385 -0.01912563 -0.12227937 -0.019411957 -0.011310594 0.03242368 0.048870206 0.041595552 -0.013128124 -0.0572546 0.017642455 0.01748674 0.0027271775 -0.05300431 0.052646358 0.017663255 0.06860472 0.053262826 -0.0056672846 0.05152312 -0.04368002 -0.016800582 -0.068035945 -0.10562669 0.019907124 0.02920424 0.094009496 -0.034988053 -0.047033515 0.14055356 0.06897571 -0.031554762 -0.00659547 0.016378272 -0.055429984 0.045653567 0.030308772 0.021844452 0.14169896 -0.03609908 0.027130647 -0.03767387 0.06358203 -0.052403368 0.05795179 0.11376579 -0.0067252154 -0.05648094 0.07338266 0.13812067 -0.03228445 0.017358527 0.07057403 -0.028668119 -0.05626939 -0.00029926718 -0.048911113 0.05518354 -0.07584246 -0.016311994 0.034399427 0.006357231 -0.10355035 0.010450656 -0.04170972 0.06427908 -0.025525438 0.045811027 0.051685728 0.049215782 -0.10825402 0.03841356 0.111834444 -0.1019553 0.008166251 -0.02526999 -0.023504125 0.08660132 0.030372705 0.019936489 0.022839848 -0.028471151 0.064499184 0.040327024 0.012974683 -0.027939327 0.006665496 0.059899565 0.023196496 -0.07632962 0.06493478 0.055385835 -0.11595433 -0.005529703 0.02537516 -0.020640092 0.006489853 0.05876217 0.029101597 0.008666419 -0.011478815 -0.02159879 -0.058009043 0.16000156 0.07400537 -0.01625665 -0.008623006 -0.040642723 -0.09342971 -0.010312471 -0.0016237282 0.037401967 0.005743238 -0.057194967 -0.045080967 -0.042996258 -0.11482799 0.11598072 0.09048851 -0.049856637 0.13000299 0.07924007 0.051885765 -0.05388171 -0.085175864 -0.055232733 0.030663127 -0.06465592 0.012709861 -0.015850944 -0.034291785 0.09292097 -0.04524665 0.048484366 0.015125776 0.004102778 -0.008357922 -0.047579736 0.056105383 0.047061335 0.022212293 0.009888544 -0.026696317 0.0654433 -0.06100337 -0.008870044 -0.027214814 0.07586237 0.044981495 0.004258406 -0.037257552 -0.027479088 0.08190508 -0.052810267 0.07069731 -0.0605669 -0.034895964 -0.08623029 -0.030382512 0.019821107 -0.03244634 -0.026386803 0.16326034 -0.01661411 -0.011523696 -0.028612854 -0.08510286 -0.04205427 -0.08017999 -0.05858323 0.0032334528 -0.122356035
988 -0.039592076 0.028939392 0.04385444 0.0143967 0.11452991 -0.05572143 -0.05570296 -0.021137295 0.13872473 0.10387069 0.04411719 0.07307375 0.06704516 -0.075092494 0.03392998 0.066329874 -0.037957594 0.07877994 -0.040210433 0.08113345 0.06390415 0.11094811 -0.0952248 -0.003172243 0.014440837 -0.027223518 -0.025372619 -0.034198232 -0.099586 0.07312304 -0.053207166 -0.07011698 0.018171798 0.10440435 0.0056227143 -0.014367755 0.025045812 -0.045123357 0.03869547 0.08384714 -0.04941514 0.003923475 -0.121855505 0.01193714 0.014296093 0.15734205 -0.07284417 0.06643297 -0.03736975 -0.03150184 -0.089521974 -0.0029155456 0.0221784 0.06355595 -0.009869582 0.02165277 -0.08182656 0.025119567 -0.05954349 -0.14861616 -0.030030815 0.07979103 0.014986794 -0.013953619 0.034018107 0.059348837 -0.053930182 -0.09047169 -0.026058855 0.012896169 0.05826393 0.018532364 0.021977067 0.05026052 0.007920216 0.037044164 0.07479701 -0.074065596 0.0043615233 -0.07185175 -0.04156613 -0.06624029 0.113565974 -0.011579169 0.023884872 0.09250597 0.027250735 -0.0458357 -0.01780553 0.01326366 -0.023389302 0.057788074 -0.02552882 -0.012268887 -0.035679694 -0.09176211 -0.028855057 -0.030731674 0.03141428 0.067464024 -0.0176933 0.037296776 0.051704213 -0.035934124 0.102941036 0.029671906 0.086925775 0.08327188 0.007819045 -0.033984635 0.021525951 0.014765768 0.036369085 0.030939626 0.002195931 -0.0024781935 0.047953825 0.05266538 -0.015686395 0.02315652 -0.049024474 0.014754729 0.04490013 -0.03643216 0.03491344 0.024581935 -0.03115399 -0.037071623 -0.013637371 0.021154227 -0.04009627 0.04337449 0.02074408 0.021936024 0.12710895 -0.0047344565 -0.028121218 -0.03508493 -0.09935659 -0.014223116 0.069772445 -0.07423463 -0.024802491 0.0018891583 0.046479475 -0.008510415 -0.077339634 -0.010119248 0.046485607 0.012495105 -0.061513823 -0.019262608 0.06527324 -0.0006680712 0.011378115 0.09407545 0.07064403 0.10922412 0.054658163 0.08701028 0.03746154 -0.03373619 0.011266425 0.15218428 -0.059274554 0.079005785 0.016466368 0.064417586 -0.012948004 -0.0119146025 0.02853767 -0.06069056 -0.037359938 0.014187999 0.024834175 -0.01144696 0.08356202 0.15208317 -0.10208977 -0.01484057 -0.0025682875 -0.006481985 0.04390426 -0.020447383 -0.074291244 0.07751798 -0.06674514 -0.118619725 0.060291227 0.012789442 0.047861032 -0.06795449 0.032608036 0.064332336 -0.11159907 0.0138741825 0.09223466 0.012976945 -0.0076897363 0.04677149 -0.030752527 -0.026950706 -0.009285649 0.071262136 0.0590995 -0.119044 0.016388431 -0.02439763 0.045533378 -0.065532714 0.02844364 0.105483 0.05945268 -0.10655407 -0.017717907 0.05386749 0.013265119 -0.06370692 0.03149862 0.024113957 -0.07934339 -0.030707272 -0.090266645 -0.05993905 0.05430335 0.0545028 0.021176333 -0.035609376 0.06332294 -0.06626025 -0.04026152 0.08809439 0.10962508 -0.05014982 0.070325054 -0.039612047 -0.003261148 -0.004498921 0.0051958007 -0.03657482 -0.010063974 0.017896315 -0.0027896701 0.04404308 -0.06952108 -0.0501986 -0.0037810814 -0.029154602 0.0037737947 0.02862605 0.045630354 0.019768631 -0.041593727 0.0025281298 0.0026142828 0.047208574 0.09396266 -0.097502105 -0.039701417 -0.060970113 0.02629468 0.09072522 -0.052358154 0.03828186 0.05500614 -0.07884205 -0.013293082 0.03658389 -0.010315557 -0.022991115 -0.00153622 0.03118674 -0.09594229 0.03237268 -0.043537784 -0.011486595 -0.054452263 0.05336425 -0.023794757 0.028986545 0.15873948 -0.09413094 0.051466394 -0.029125355 -0.10001563 -0.016494457 -0.083831094 -0.070421875 0.060365714 -0.03363379 0.094438784 0.10791449 -0.019305127 0.04599477 0.011164358 -0.0008447672 0.07426063 -0.03684905 0.009527571 -0.05631065
